,0,1,2,3,4,5,6,7,8,9,10,11,12,13,14,15,16,17,18,19,20,21,22,23,24,25,26,27,28,29,30,31,32,33,34,35,36,37,38,39,40,41,42,43,44,45,46,47,48,49,50,51,52,53,54,55,56,57,58,59,60,61,62,63
Iron_Deficiency,0.12035218,-0.5078697,-0.1583427,0.30420634,0.35316104,-0.0008437537,-0.036852892,-0.19265433,-0.1867572,0.1060727,0.029452672,0.17276022,-0.4447136,-0.06157745,0.28434628,0.5332912,-0.5239921,-0.13566352,-0.13384934,0.28097668,0.3261615,0.40673992,0.29914734,0.1039371,0.243943,0.20300676,0.041305926,0.19328682,0.03823668,-0.19281141,0.0031672427,-0.36541194,0.3832939,0.402867,-0.25577655,-0.5606673,0.46978036,0.4999951,-0.12521157,-0.20145416,-0.14017375,0.2780104,0.3474153,-0.31002387,-0.3839156,-0.40296146,0.049887642,0.08867353,0.2650127,0.08430025,0.32968727,0.12228996,0.09547315,0.50587523,0.07969205,0.046019554,0.6564194,-0.26014778,-0.43465266,0.041128576,-0.10082726,-0.07040556,-0.25294188,-0.5822692
tanaman_kerdil,0.47423604,-0.07803017,0.18554737,0.17047863,0.2823914,-0.15498152,0.117825076,-0.14752088,-0.30036867,0.014569452,-0.05605862,-0.011188474,-0.001041486,0.07592985,0.1190123,0.41874543,-0.22989367,-0.13534187,-0.2092697,0.35883227,0.07503367,0.6514704,0.3038724,-0.38273627,0.40786436,0.236908,-0.1243973,0.04984626,0.17556271,-0.15689781,0.056799285,-0.13587514,-0.044112366,-0.049393285,-0.31851244,-0.51705325,0.36018553,-0.051613834,0.00729038,0.029427445,-0.1892118,0.18959294,0.45709133,-0.4010176,-0.1733874,-0.28079572,-0.038661867,0.03223288,0.41479653,0.1282674,0.064798005,-0.06370703,0.016230365,0.22332989,0.33113754,0.06669162,0.18940341,0.0540782,-0.26638713,-0.13002673,-0.17548965,0.086417556,-0.02252384,-0.054716196
Stunt_of_Maize,0.48815787,0.05453403,0.3717959,0.32777876,0.099519804,-0.040898215,0.5360916,0.06461731,-0.23049065,-0.13123798,0.08716392,0.046384513,-0.31018037,0.14413948,-0.1808285,0.86437124,-0.3714828,-0.058620654,-0.20212387,0.37958634,-0.069585524,0.24787143,0.14292315,-0.298511,0.17435221,0.27220342,0.2566205,0.44190112,0.11004799,-0.059632406,0.09417733,0.07656326,-0.06866775,-0.09259632,-0.057271026,-0.36825287,0.21220721,0.077299885,-0.17521976,0.21703494,0.3191147,0.37523052,0.15959428,-0.6847493,0.18163809,-0.010995297,-0.23883033,-0.039432783,0.0044607255,0.25012928,-0.049674515,0.4489496,0.34542453,0.2682614,0.5980455,-0.1173391,0.14454699,0.037304364,-0.23505096,0.08579092,-0.2782184,0.099505514,-0.16778836,-0.08186468
batang,0.22630864,-0.14977254,0.36719963,0.3918641,0.1510092,-0.4426851,0.12453471,0.07342163,-0.494299,-0.030747367,0.14641047,0.04433201,-0.38068306,0.11817544,0.029437229,0.53351367,-0.25538823,-0.003560208,-0.13456969,0.2890529,0.15660712,0.5244941,-0.005462799,-0.23173256,-0.037586417,0.13782579,-0.036825825,-0.13591272,0.21440229,-0.24582282,-0.016380277,0.07065915,-0.18571694,0.014788013,-0.29532087,-0.27976194,0.34683365,0.18232885,0.058862623,-0.09278592,-0.25977373,0.071332864,0.04434683,-0.49583033,0.17216906,-0.13091592,-0.10097441,-0.034645207,0.27188808,0.24546471,0.07523137,-0.09769712,0.075830884,0.09449923,0.26521516,0.2977267,0.16315311,-0.015971987,-0.29462856,-0.074725784,-0.38868475,-0.07652404,-0.13856916,0.1645849
Stalk_Rot_of_Maize,0.58628327,-0.4461953,0.1001827,0.13890272,0.2592094,0.03268257,0.16420989,0.032171607,-0.55115,-0.018815761,0.1316908,-0.04171268,-0.27878845,0.026877897,-0.30442613,0.67723864,0.19052716,-0.0020132852,-0.015532702,0.26004758,0.32353613,0.6354979,0.058024835,-0.34210825,0.021391967,0.3689506,-0.015281563,-0.0857424,-0.17649259,-0.33858413,-0.03773434,0.11389674,-0.31475806,-0.15651616,-0.2721534,-0.10840183,-0.009086297,0.067455694,0.16088869,-0.046632096,0.049216747,0.08373127,0.017383432,-0.5397164,-0.1723213,0.10008945,-0.28641415,-0.08920931,0.1625468,0.47755423,0.13562411,-0.32408905,0.011555846,0.73116076,0.17249909,-0.04578959,0.32876363,-0.04695377,-0.067288004,-0.08268504,-0.03575367,0.072215855,-0.017231425,-0.28202084
carbendazim,0.7495963,-0.5733842,-0.20575424,0.09704715,0.13842684,-0.18008095,0.16244692,0.14580111,-0.3398427,-0.21177928,0.15753353,-0.012336133,-0.3735803,0.38969243,-0.56564623,0.59806913,0.14922802,-0.1770874,0.0059162364,0.082724616,0.08791835,0.7723258,0.036022156,-0.19446784,0.25883365,0.36763284,0.10595112,-0.28187728,-0.10214457,-0.14735064,0.20961604,0.19171062,-0.10111243,-0.4527789,-0.23245887,-0.36551046,0.47630423,-0.021387529,0.08134736,0.11351809,0.18410689,0.15725636,-0.10941273,-0.41932398,-0.10679114,-0.15208481,-0.3800104,-0.24533305,0.06383906,0.40067634,0.2832947,-0.38827354,-0.15745212,0.5523437,-0.062887736,0.0021757598,0.28484043,-0.17971948,-0.22050293,0.086710855,-0.21715255,-0.008236852,0.04447163,-0.09404365
Cucumber_Beetle,0.22901398,-0.06322883,0.29400578,0.036154304,0.24158351,-0.05072941,0.008813711,0.08197656,0.028192002,0.03275354,0.0875608,-0.0716508,-0.6536138,-0.14160755,-0.3787801,0.43391335,-0.076545425,0.2515114,-0.015781894,0.49404913,0.025479475,0.03505572,0.56193405,-0.4341103,-0.13526358,0.61187005,-0.034416314,-0.17871372,0.06671382,-0.053935997,0.10135246,-0.08206942,-0.03975248,0.025823303,-0.3489424,-0.4242712,0.41318858,0.1687435,0.10258973,-0.15116024,-0.09416885,0.2820941,-0.1900208,-0.59686154,0.39592734,-0.12641874,0.12000728,0.17601544,0.06208858,0.047001954,-0.17987882,-0.23967308,0.11938442,0.46324858,0.6457314,0.30389214,0.22727813,0.10930569,-0.32497317,-0.37420088,-0.1427822,-0.27501324,-0.23886175,0.19987468
busuk,0.3163393,-0.3186296,0.31084296,0.13243365,0.2834752,-0.16467735,0.19061102,0.23299061,-0.32029852,-0.07045079,0.36984843,0.29540765,-0.2524948,0.1323231,0.1297521,0.3775547,-0.040330287,-0.12295804,0.13177757,0.27652258,0.2514264,0.2239052,0.12355222,-0.22422267,0.029196097,0.38498756,-0.15646973,-0.19654459,-0.12568621,-0.17628635,0.13898082,0.08534037,-0.016386444,-0.21814215,0.058620665,-0.42108974,0.3591425,0.0005967677,0.48388642,-0.11352972,-0.33323154,-0.016505959,-0.021495977,-0.4189291,0.15139186,-0.03715985,-0.33264855,0.071430914,0.10741241,0.22396672,0.13110335,-0.17583247,0.1535813,0.11030791,0.6498854,0.27308908,0.2624779,-0.01330895,-0.24459782,0.004595266,-0.28652906,0.15404178,-0.3293077,-0.074951425
na61ff444636d4a939718f3d4b2f8028ab20,0.058681305,0.25848624,-0.18307695,0.309437,0.31890774,-0.046734963,-0.09070231,-0.40396494,-0.09847339,-0.8151254,0.25456905,-0.41849536,-0.096147224,-0.5524207,-0.014351665,0.21780048,0.0008825787,-0.63614976,0.10866822,0.5638764,0.56101507,-0.061084464,-0.17377089,-0.013324418,-0.074707545,0.27173072,-0.5529019,0.43181968,0.0014203466,0.2012696,-0.36279824,-0.13815816,0.22783536,0.15282844,-0.43993878,-0.34893674,0.4297627,-0.06008091,-0.11474638,-0.12666722,0.4109111,-0.38634947,-0.11323953,0.013876593,0.3065876,-0.2687952,0.29231134,-0.36933562,0.2995928,-0.02809415,-0.4581686,-0.62190783,0.29159656,-0.06702481,0.008473945,-0.5135349,-0.1744668,-0.3967378,0.54394215,0.731411,-0.114246316,0.13883139,0.10725121,-0.14097974
nil,0.027908312,0.3896947,-0.15475182,-0.22365871,0.20801665,0.21210185,-0.38860258,-0.44271937,-0.24926238,-0.8650534,0.32072285,-0.68372166,-0.16841418,-0.3612421,-0.036885783,0.31671843,0.111636505,-0.43098754,0.15806605,0.46602553,0.39412454,0.11152192,-0.07605203,-0.2789899,-0.12654501,0.09023433,-0.5908919,0.27160534,-0.14496137,0.2937582,-0.38459638,0.073305085,0.33860523,-0.105049856,-0.18262357,-0.30294773,0.52360153,0.015587862,0.04585696,-0.08928099,0.51359636,-0.29006487,0.037211064,-0.08088437,0.35879254,-0.058487777,0.3476529,-0.266776,0.221611,-0.34327134,-0.41670954,-0.6080134,0.24843353,-0.10678061,0.095165476,-0.46632737,0.032634187,-0.4620739,-0.07601011,0.56423193,-0.09396711,0.23246911,0.28797582,-0.13927723
Maize_Chlorotic_Mottle_Virus,0.59691477,-0.08091515,0.19010715,-0.009561082,0.31843403,-0.31696022,0.08197579,0.08175409,-0.39374247,0.15094554,0.073538266,0.066233575,-0.22114037,-0.027328102,0.2710479,0.49360573,-0.1890248,-0.2607013,0.18311505,0.5884444,-0.08254276,-0.022773067,0.41408667,-0.095435776,0.24673338,0.28687385,-0.11842758,0.27367905,0.27006197,-0.047111604,-0.023870701,-0.017584085,-0.31071642,-0.3344489,0.06085458,-0.44600576,0.092873044,0.2152807,-0.058604885,0.15986545,0.1643858,-0.16048278,0.07899683,-0.632198,-0.12767541,-0.26102242,-0.33755118,-0.17590788,0.42246795,0.49478602,0.50423056,0.013332907,0.16909416,0.33095926,0.4268454,0.34224814,0.15828185,-0.012870559,-0.2016835,-0.1332996,0.07873529,-0.18136542,0.08168277,0.07454192
klorosis,0.27459186,-0.32468346,0.13743652,0.33703142,0.13703942,-0.41003406,-0.20106381,0.00522108,-0.21418782,0.20455547,0.016043695,-0.03330125,-0.22630537,0.009258832,0.0020407804,0.54673404,0.13534905,-0.15732841,-0.09359091,0.31487486,0.04480216,0.57260615,0.23417607,-0.1317258,0.15843798,0.28986806,-0.04139959,0.35561764,0.20240703,-0.30526358,0.2196916,-0.062240705,-0.026177682,0.07043383,-0.20785724,-0.3209921,0.47306168,0.19947098,-0.08232529,0.06604311,-0.15720935,0.1514775,0.3357343,-0.57213706,-0.14195067,-0.16630173,-0.14631923,0.105695665,0.2047965,0.19326071,0.076438025,-0.116802335,0.028672947,0.053881925,0.31810054,-0.048282146,0.0754289,-0.12956953,-0.37730008,-0.1220028,-0.009986463,-0.008553981,-0.065893136,-0.20429106
Termites,0.10374765,-0.28046805,0.22502534,0.29218766,-0.13333802,-0.025413906,-0.03724285,-0.122121535,-0.21401393,-0.054356713,0.2781402,0.22461371,-0.19904017,0.15149617,-0.11274983,0.3602049,-0.13594645,0.4895395,0.06241627,0.44803885,0.079531536,0.284401,-0.03407623,-0.22618867,-0.17801146,0.5513069,-0.5454516,0.07575851,0.08383892,-0.50464386,-0.29998925,0.006332027,0.065249704,-0.24149604,-0.13220565,-0.7223885,0.37526318,-0.2110276,-0.026249437,0.029174186,-0.1870627,0.43834227,0.3314612,-0.47194389,0.46932846,-0.15837823,-0.26409155,0.05576012,-0.22518207,0.38150674,0.09298236,-0.03793076,0.37937352,0.2916677,0.40936384,0.36925724,-0.10955643,0.07546185,-0.46371904,-0.07978898,-0.104819424,-0.2914854,-0.02450454,-0.02572493
termites,-0.27750018,-0.15813354,0.3487688,0.37043154,-0.26987824,0.07207312,0.20102483,-0.05027172,-0.24661209,-0.186575,0.32035723,0.4311288,-0.22729746,0.17174974,-0.19117111,0.3153188,-0.0061012786,0.3301072,0.054436333,0.6400048,0.11152332,0.34970203,-0.19011496,-0.12046429,-0.0891995,0.47293073,-0.5081892,0.18014267,0.01373372,-0.29864094,-0.176464,0.16280141,0.25484776,-0.12463498,-0.17919046,-0.9407893,0.19245638,0.14286849,0.007351237,0.25292975,-0.29192084,0.36356664,0.076104514,-0.337799,0.43167746,0.024094062,-0.36026254,-0.021091215,0.12601775,0.5069621,-0.09421089,-0.21947144,0.27196255,0.530917,0.36589986,0.38498604,-0.18133034,0.012435954,-0.43249926,0.0046711913,-0.2907434,-0.49863324,-0.25603482,0.08871804
Tobacco_Caterpillar,0.27192235,-0.4012943,-0.038367692,-0.04895226,-0.014761492,-0.34213632,-0.16226065,-0.028712858,-0.14043179,-0.08551077,0.24267201,0.043119617,-0.11008037,-0.010260011,-0.33909774,0.47248194,0.05091237,0.29524913,-0.49312535,0.6355091,0.27332845,0.33452877,0.50636494,-0.11987839,-0.1871438,0.60604215,-0.108305745,-0.3130871,-0.09311985,0.007294156,-0.11911083,-0.021045705,0.13065284,0.34090224,0.09365281,-0.57826513,0.14526935,-0.12280494,-0.070838556,0.18615581,0.11715146,0.06840102,-0.04810063,-0.5722702,-0.019634923,-0.2662459,-0.07593714,0.06490583,0.18645296,0.28881267,0.1783588,0.043886025,0.6529194,0.2980418,0.43414128,0.57003427,0.06798604,0.35086492,0.032132395,0.26260898,-0.19322243,0.19226061,-0.12272005,0.08045626
monitoring_rutin,0.38749775,0.014490484,0.4668517,0.024624063,-0.0075974334,-0.44678837,-0.038801968,0.032713868,-0.4413507,0.009931455,0.22507612,0.19797027,-0.16143489,-0.21329731,-0.0095193125,0.33720836,-0.06497527,0.11207157,-0.17382385,0.44690362,0.2860442,0.31423828,0.27131686,-0.19735153,0.108513854,0.18781173,-0.023231775,-0.017832331,0.22452803,-0.07729638,-0.092927106,0.17477955,0.06055516,-0.026521372,-0.32525054,-0.6096655,0.13644852,-0.25328544,0.19769907,0.035369854,0.18756488,0.33016396,0.25999716,-0.5275073,-0.0739333,0.030888597,-0.2238477,0.058598876,0.21247964,0.12525228,0.0021642249,0.052274946,0.23705986,0.25194243,0.36402336,0.39606532,0.08530038,0.15505739,-0.13033535,-0.014190592,-0.16350336,-0.24557097,-0.23543972,-0.17170835
tongkol,0.6201886,-0.36341798,0.41496313,0.08046316,0.2791561,-0.2937335,0.009719326,0.14810279,-0.38782457,-0.04984821,0.18550381,0.29539788,-0.46346876,-0.025243018,0.04955715,0.24991253,-0.11944335,-0.11332971,-0.38470584,0.3790581,0.2502143,0.253878,0.054100845,-0.12298448,0.33540073,0.37694323,-0.07314188,-0.13603385,0.06714677,-0.12444253,0.021457719,0.18749227,-0.2117055,-0.46939698,-0.284049,-0.4649785,0.27016866,0.020214837,0.18743703,0.18367746,0.21375592,-0.03699996,-0.009702966,-0.45184246,-0.062198356,0.12903567,-0.24118924,0.10814181,0.09410966,-0.09340827,0.29384252,-0.0038892725,0.15183483,0.09659431,0.5099854,-0.014958667,0.16465169,0.20757335,-0.27254152,0.009589015,-0.090260066,0.040458933,-0.34555566,-0.18563204
virus,0.2354632,-0.10579637,0.045465138,0.16257766,0.21927804,-0.46458605,-0.052378714,0.04488218,-0.3854803,-0.077349,0.097825244,0.22947374,-0.37631172,-0.37543193,0.15538591,0.35590637,-0.36200693,-0.29597563,0.06993868,0.66508645,0.21502496,0.21548125,0.43109053,-0.047574967,0.14785746,0.14749376,-0.2991807,0.3237699,0.316398,-0.23176835,0.10640242,-0.07598912,-0.31171653,-0.51976764,-0.012048875,-0.2706038,0.19360103,-0.051901143,-0.19815597,0.08130459,0.17137983,0.24946037,0.01000499,-0.58364755,-0.36254385,-0.16770913,-0.57826674,0.08867799,0.41283402,0.22353373,0.28279307,-0.14103578,-0.17670451,0.3048445,0.50071985,0.09921576,0.3163504,0.20757708,-0.020400051,-0.097406946,-0.14359896,0.12797543,-0.08111994,0.032911133
Nitrogen_Deficiency,0.08808091,-0.2780713,0.5040645,0.07199098,0.402985,-0.056930408,-0.03740606,-0.43368146,-0.08199941,0.0897917,0.121237084,-0.038347434,-0.29675108,0.3272663,0.008214787,0.4201756,-0.088999294,-0.027533881,-0.22794059,0.30336785,0.23824441,0.33407098,0.21516432,-0.105705634,0.27150732,0.42642826,0.17675647,0.061763696,0.06395135,-0.6001679,0.49239835,-0.18933046,0.0020499742,0.15151785,-0.3401597,-0.3290805,0.10833466,0.35613093,0.08055871,-0.22791648,-0.072134346,0.5216382,0.428914,-0.26891908,-0.25678352,-0.9909611,-0.11277652,-0.27296007,0.2707158,0.19077234,0.24548832,-0.07663529,0.01870322,-0.07849034,0.58553445,-0.060531244,0.30756202,-0.20769368,-0.28454572,0.01894086,-0.05390311,-0.26824418,-0.15171665,-0.44278303
tes_tanah_rutin,0.28192496,-0.36093473,0.24484037,0.33368483,0.07689586,-0.17184822,-0.2093573,-0.24210829,0.15690123,0.24741274,0.112960614,-0.12251508,-0.33470923,0.09953386,-0.041867387,0.71405876,-0.110521995,0.25768015,-0.079955675,0.39974055,0.3238772,0.25293195,0.15241177,-0.4565819,0.18517472,0.30071625,-0.17809482,-0.09735058,0.14738801,-0.19854921,0.44998196,-0.123522624,-7.670183e-05,0.47045624,-0.021852892,-0.3570193,0.5105977,0.45065427,0.0026844305,-0.13516283,-0.12573826,0.2964827,0.57092667,-0.1745304,-0.14527014,-0.41307342,-0.20224498,-0.16163868,0.4851335,0.1256373,0.45580927,0.038584325,-0.049859032,0.00797245,0.49018395,-0.3786633,0.23389104,-0.41189864,-0.14732002,-0.09898087,0.026162405,-0.1000839,-0.11723511,-0.28486606
kelembaban_tinggi,0.31288403,-0.54848576,0.2783324,0.004198452,0.3794418,-0.110289335,0.09887872,-0.03598584,-0.1533041,-0.039125077,0.31209436,-0.017416136,-0.053300086,0.24224475,0.0062620216,0.41022545,0.22787595,-0.17460881,-0.19214197,0.44728786,0.08670592,0.41316178,0.24795966,-0.33953145,-0.03230805,0.18752357,-0.2569192,-0.040411524,0.2161387,-0.06887483,0.16584505,-0.013148504,0.07721387,-0.2366298,0.11764623,-0.32620528,0.28145662,0.08102392,0.51815677,-0.05030598,-0.16185836,0.110746026,0.04685674,-0.5349942,-0.20080948,-0.20404924,-0.053902753,0.042499196,-0.011654702,0.12413185,0.033751827,-0.0074428143,0.112714015,0.17856458,0.7726247,0.09287868,0.33163467,-0.056833506,-0.2547238,-0.12156835,-0.1553117,0.086600184,0.01802912,-0.30056328
MCMV,0.32445014,-0.072891355,0.112961546,-0.34993777,0.14600389,-0.3937164,0.053541478,0.0532314,-0.3066487,0.16998616,-0.10130057,-0.13106202,-0.3413165,-0.20908672,0.24371774,0.29268765,-0.34297574,-0.3087795,0.0044445954,0.8069439,-0.070960075,0.16020697,0.48520488,0.039404675,0.06761207,0.1744027,-0.31355384,0.46016136,0.5718771,-0.062212404,-0.086867884,0.051457956,-0.13378407,-0.4678585,0.10173058,-0.5033577,-0.0140355425,0.026527286,-0.010106135,-0.18545303,0.34493822,0.036231436,0.14077973,-0.5423342,-0.23642981,-0.013148017,-0.26612428,-0.029505003,0.44403684,0.56324655,0.5352532,-0.1527212,-0.06679964,0.3292364,0.62822086,0.08848757,0.44797644,0.12672123,-0.22853856,-0.034711838,0.059088066,-0.12330172,0.011691212,-0.020917604
Jagung,0.2579954,-0.1666301,0.27443033,0.22786817,0.071415864,-0.19404522,-0.1322688,0.1952501,-0.34171453,0.16538283,0.17222962,0.09387395,-0.21891847,0.09555841,-0.104055725,0.4041538,0.0237616,-0.16805014,0.025419824,0.44482258,0.20617412,0.39074746,0.39711824,-0.3279492,0.07704437,0.23337112,-0.15586108,0.0019214399,-0.04863596,-0.31946644,0.062054195,0.029233214,0.054046437,-0.032866884,-0.10857551,-0.46181056,0.43033236,-0.01561837,0.066636235,0.21440612,-0.15176627,0.12059335,0.20935914,-0.06543296,0.15407233,-0.17034423,-0.046630368,0.067436114,0.24168797,0.057046577,0.23863558,0.17783555,0.25085148,0.21203446,0.517008,0.03377863,0.47512892,0.038217325,-0.18919054,-0.006807879,-0.2680454,-0.0038666804,-0.19676962,-0.30143195
Damping-Off_of_Seedlings,0.3313216,-0.22848098,0.17320548,0.49718088,0.3334199,-0.33740175,0.22275172,0.18076326,-0.051290475,-0.13354817,0.51298267,-0.08222126,-0.35306272,0.10826389,-0.20201169,0.29724455,-0.19871533,0.052127544,0.23389037,0.2467611,0.43806082,0.6908113,0.3099563,-0.1873288,-0.034789633,0.56601894,0.017788513,0.054343566,-0.13665776,-0.18711899,-0.11012907,-0.26258302,-0.108937405,-0.06893195,-0.18068889,-0.09508302,0.19129035,0.21579278,0.35892767,0.0891867,0.038134508,-0.06037122,0.036588166,-0.07900607,-0.3827661,0.0051650843,-0.17055629,-0.051538777,0.11999879,0.592829,-0.06907164,-0.1762251,0.15131514,-0.04192796,0.5991852,0.23309807,0.17450644,0.016690047,-0.7505164,0.06440348,-0.07124037,-0.31647602,0.030819347,-0.09932023
Pythium spp.,0.21352994,-0.2212733,0.069347486,0.5138763,0.19314586,-0.1333159,-0.012049483,0.24230748,-0.16807178,-0.013319727,0.25589943,-0.20567568,-0.42316148,0.33113036,-0.12695411,0.22975828,-0.2794111,0.08275723,0.22118606,0.11810489,0.6192751,0.9096638,0.33890608,-0.009664086,-0.18138143,0.41598433,-0.09131486,0.13393602,0.16122192,-0.21091197,-0.048432782,-0.050224,-0.1027152,-0.09840155,-0.1415304,-0.17290834,0.34511495,0.3574428,0.29404205,-0.22050981,-0.062067084,-0.3263626,0.036988705,-0.15988147,-0.18092507,-0.06676203,-0.22674014,-0.13488813,0.17914177,0.72045577,-0.3510265,0.15815213,0.16190116,0.0034259295,0.8568436,0.31817332,0.13709104,-0.03799186,-0.3945465,0.3053407,0.1634029,-0.34404355,-0.050863773,-0.10502978
Maize_Smut,0.2988111,-0.048189513,0.1793039,-0.20478958,0.28041753,0.07930941,0.16145228,0.16981871,-0.40019885,0.15524793,0.26105586,0.00034279708,-0.09958409,0.21835165,0.03313268,0.4030656,0.06939301,0.16462827,0.1105964,0.50376403,0.34532854,0.5902966,-0.013383311,-0.1021475,0.25356,0.44451553,-0.032612305,-0.011667218,0.49401826,-0.2834333,-0.14616656,0.07887275,-0.40020835,0.17580305,-0.115766235,-0.37280068,0.37228614,0.34846044,0.21849218,-0.040185686,0.11612307,-0.007321864,0.21261403,-0.40278322,-0.05261919,-0.076681726,-0.52851796,-0.08564142,0.007545167,-0.21935728,0.22733845,0.066962205,0.0888621,0.3068171,0.5563961,0.18163759,0.282273,0.19648325,-0.22659476,-0.20258681,-0.5852135,0.10349469,-0.15862453,0.15141506
Maize_Bushy_Stunt_Phytoplasma,0.33953166,0.06346871,0.09664802,-0.02248627,0.1834261,-0.56416166,-0.09519408,-0.058752913,-0.36512816,-0.3620837,0.10956108,0.1298298,-0.22141595,0.18777329,-0.10273574,0.7202015,-0.3430378,-0.1908737,0.027559707,0.29185092,0.0759833,0.18015237,0.26493862,-0.5595207,0.43686175,0.19162498,-0.11089736,0.40955207,0.2121253,-0.36932474,-0.047050428,-0.03785482,-0.54914874,0.012943195,0.050357,-0.44478205,0.083212644,0.25192365,0.10389307,0.108824365,0.110531054,0.057191752,0.0046512275,-0.69678056,0.13286039,-0.0830833,-0.08159198,0.060896136,0.25397554,0.047597468,0.1004178,0.38910663,0.15878677,0.34701034,0.26931295,0.059177674,-0.031219127,0.20525694,-0.53882194,0.18263452,-0.026424607,-0.02720418,-0.23172787,-0.25843266
suhu_tinggi,0.20201465,-0.3348567,0.21115595,0.11463691,0.15687443,-0.40375295,0.18418643,0.067371994,-0.5441492,0.08455056,0.20221409,-0.17397766,-0.3334382,0.035490908,-0.13386846,0.3617969,0.047610532,0.06098386,-0.2930426,0.22829008,0.056035493,0.299255,0.45120057,-0.10020052,0.008878742,0.4858364,0.061289113,0.11484775,0.1646906,-0.17609121,-0.058956165,0.0051704347,-0.14492379,-0.10813325,0.023469104,-0.41919515,0.40382102,-0.06833434,0.310312,0.1422303,-0.029189708,0.2131244,-0.1235618,-0.45352837,0.11580367,0.16300404,-0.12404496,-0.16246769,0.2670991,0.13675429,0.08007928,0.0010524971,0.3357789,0.121899895,0.3678805,0.23338078,0.2399307,0.08373575,-0.22674969,0.044324122,0.016542623,-0.12942609,-0.06474132,-0.3046031
Boron_Deficiency,0.15116692,-0.14377888,-0.052281845,0.3452297,0.14880459,-0.68020546,0.087009765,-0.22715786,-0.14580007,0.4877,0.30277824,-0.070994414,-0.2740559,0.09730116,0.08034132,0.81437135,-0.18098293,0.4256604,-0.062069852,0.4168421,0.42972338,0.3693401,0.08317491,-0.24255772,0.13803288,-0.06936003,-0.25271255,-0.30706248,0.10320689,-0.35538074,0.29472065,-0.13283339,0.22631907,0.28699306,-0.3338042,-0.41599393,0.44673464,0.42956823,-0.041960474,-0.13439406,0.21967095,0.2577705,0.23431395,-0.30493262,-0.038192615,-0.20951073,0.17415924,0.12928045,0.22244108,0.1284441,0.3988676,-0.08450493,0.16861615,0.019400336,0.5056204,-0.15158051,0.2906531,-0.6396786,-0.25145233,-0.13940598,0.11657781,-0.10532449,-0.109554246,-0.058673337
batang_rapuh,0.3587439,-0.35209337,0.40935752,0.4074914,-0.1062908,-0.76143813,0.008069491,-0.1341825,-0.17706768,0.3860389,0.18719302,-0.106727436,-0.2792088,0.16700307,0.12962319,0.8514371,-0.14701629,0.34533638,0.12726198,0.4022708,0.48833886,0.090153486,-0.037523136,-0.23638742,0.05147407,-0.023237847,-0.5012964,-0.25882113,0.036624398,-0.33328786,0.24635932,-0.10781408,0.32209814,0.49968886,-0.20275535,-0.27008182,0.43304926,0.6369761,-0.17816077,-0.24967425,0.039013997,0.19987017,0.16894564,-0.29747772,-0.2118575,-0.26080012,0.18938823,0.08235638,0.2603845,0.10017883,0.47003725,0.008504524,0.20988053,-0.13125975,0.3818245,-0.23401745,0.34334227,-0.32315287,-0.22068276,-0.06553236,-0.08471947,-0.15343814,-0.049044095,-0.08146858
Bagrada_Bug,0.3909943,0.053154945,0.5186403,0.08743295,0.0822744,-0.20286952,0.1253798,-0.0957805,-0.04060468,0.11832404,0.031934492,0.28273425,-0.067776926,-0.2975738,-0.09792858,0.53681993,0.19185774,0.219414,-0.1715163,0.04037055,-0.124136105,0.5849595,0.40672478,-0.12503314,-0.43032655,0.5884707,-0.29436928,-0.031223224,0.32501218,-0.36847737,-0.23703815,0.13466927,0.049262073,0.020792529,-0.28289515,-0.4363035,0.40573868,0.08289885,0.038830236,0.22589202,0.13833143,0.27804822,-0.25089425,-0.53886914,0.06622573,-0.17959681,-0.24263555,-0.035767265,0.47736654,0.119130276,0.11263277,0.1123823,0.071469866,0.15953054,0.18042046,0.28267938,0.29885468,-0.56644934,-0.4165368,0.27184358,-0.20734008,-0.13214462,-0.24184558,-0.03610943
parasitoid_telur,0.521752,-0.102972366,0.6371483,-0.01038823,-0.06328207,-0.309512,0.072338894,0.2809065,0.0018091964,0.428106,0.21224862,0.21177502,0.058892805,-0.36166576,-0.14590308,0.73782945,0.19240375,-0.17520729,0.050471067,0.27432883,-0.058026604,0.6543777,0.48931575,0.26848364,-0.43381372,0.3643196,-0.4097537,0.19685413,0.28103715,-0.27561137,-0.020440923,0.091570415,0.038961694,0.18016519,-0.34018,-0.5258684,0.37097168,-0.16603714,0.32033944,0.2006159,-0.121815994,0.30408606,0.21659088,-0.69367397,-0.29699883,-0.26153916,-0.0025880083,-0.022735706,-0.015904492,-0.12461951,-0.2552837,0.02311152,0.016365211,0.4506493,0.12854497,0.18174662,-0.10353455,-0.057250723,-0.2540915,0.09469235,0.031142656,-0.29676548,-0.013712449,-0.2043101
Downy_Mildew_of_Maize,0.62090796,0.058858175,-0.020811008,0.52813095,0.5382852,-0.33244273,0.05495301,0.22119537,-0.20596893,0.034672648,-0.13902712,-0.25477195,-0.03466468,0.18107563,-0.06309171,0.41443318,-0.005512441,-0.1639138,-0.023914354,0.47821242,0.17551824,0.46093816,-0.14011587,-0.083241396,0.12422463,0.21117431,-0.34184614,0.1313652,0.091505155,-0.39203197,0.09629367,-0.1710848,-0.41312614,0.18971,0.051095396,-0.70869315,-0.009665816,0.055078927,0.10317508,-0.04241155,-0.07796518,0.26586482,-0.14297283,-0.15656553,0.10622927,0.03429984,-0.60845816,-0.20638391,0.24900863,0.10768009,0.06472954,-0.19343443,0.13398246,0.40943414,0.5304648,0.2772988,0.3732203,0.10467074,-0.5157868,-0.05322094,-0.13762079,0.112789914,-0.39546406,0.14930351
peronosclerospora_sorghi,0.6819611,0.304191,-0.06464985,0.14558412,0.55330527,-0.23768234,0.06089263,0.6957151,-0.35971916,-0.09883072,-0.016541468,0.046257395,-0.12950301,0.25395447,0.023430172,0.18940745,-0.28409114,-0.18995276,0.09002488,0.16757447,0.45134935,0.3958035,0.032750808,-0.11674626,-0.041333336,0.247792,-0.4202193,-0.14237806,0.01281235,-0.4407802,0.13516204,-0.124879174,-0.46751016,0.4442189,0.056459807,-0.60435873,-0.07940498,0.071318455,0.0042322692,0.09238768,-0.22560029,0.34646353,0.14221586,-0.39592174,0.17483236,-0.06989573,-0.468935,-0.3740162,0.49064127,0.20800664,-0.20483643,-0.48287764,-0.046226617,0.40718493,0.55300343,0.267308,0.3398091,0.0045717745,-0.6070581,-0.03021353,-0.14667305,0.32759914,-0.16468605,0.14669335
cabut_tanaman_terinfeksi,0.4520001,-0.22877812,0.06971449,0.02823474,0.28496665,-0.3870761,0.08435449,0.0022035341,-0.5461243,-0.03320343,0.24037087,0.06661766,-0.23302402,0.028793864,0.19385643,0.40007907,-0.23894432,-0.3178448,-0.19037554,0.12287956,0.10460503,0.503815,0.16980605,-0.3705857,0.22576246,0.12237635,-0.19393554,-0.081025906,0.14938587,-0.09087088,-0.003956363,-0.06018617,-0.39076635,-0.24549246,0.008585468,-0.1695039,0.26365966,0.036802083,0.16830672,-0.05441255,0.03564277,0.27369606,0.19472949,-0.5615615,0.18120123,-0.1878402,-0.45620117,-0.09047976,0.20281254,0.2601482,0.109459676,-0.2880652,0.093413614,0.20555772,0.35011116,0.24512957,0.38102967,0.20073794,-0.38742504,0.008184477,-0.39667642,-0.21130802,-0.13199423,0.15339991
Helicoverpa_Caterpillar,0.3460072,-0.36070177,0.36940858,0.06153652,-0.25616226,-0.34145164,-0.086336054,-0.17285737,-0.06636422,0.17598782,0.47145548,0.27491722,-0.118650235,0.11845581,-0.12305485,0.4478863,-0.12939814,0.15383588,-0.022684235,0.42407215,0.29413602,0.6007137,0.5696559,-0.12672831,0.15526874,0.3986574,-0.03793204,-0.19340378,-0.07971641,-0.08017616,-0.3405134,0.055517357,-0.16639253,-0.15895101,0.017377842,-0.82097584,-0.22749859,0.09951663,-0.21984835,-0.020920007,-0.07842192,0.16916662,-0.07170931,-0.54539156,0.14456429,0.06628262,-0.026552679,-0.122662656,0.089423105,-0.07177565,0.14025871,-0.34169063,0.18774715,0.016733164,0.45522726,0.2883988,0.41307795,0.08279407,0.14912827,0.14658915,-0.097071916,0.10870355,-0.39240494,-0.12487925
serangga,0.36650717,-0.07894421,0.36907542,0.17982975,-0.06512581,-0.2654114,0.11982128,-0.047363006,-0.34471208,0.15334876,0.4155401,0.046406668,-0.060586657,0.004493453,-0.14548172,0.35410908,0.010775339,0.075974114,-0.05024246,0.58455604,0.18273911,0.20584406,0.5340999,-0.19807841,-0.004954794,0.38199565,0.013650112,-0.118375994,0.12421129,-0.176304,-0.11072559,0.2174349,0.21250874,0.13764377,-0.23047538,-0.5911146,0.27936667,-0.27584857,0.15403432,0.090574525,-0.13351879,0.24181378,-0.06433957,-0.4476438,0.19829123,0.008991683,-0.13353282,0.070729166,0.23185125,-9.8404525e-05,-0.08393093,-0.011626991,0.08814937,0.4532039,0.2627567,0.33100775,0.10135022,0.09494619,-0.15547508,0.13990137,0.01365059,-0.21084788,-0.12760352,-0.20139843
Northern_Leaf_Spot_of_Maize,0.42907965,-0.48617074,0.56975657,0.041091073,0.61885583,0.03516543,0.09177863,0.52461636,-0.083005376,0.025386464,0.14986286,0.045722138,-0.4336232,0.26171482,-0.21825407,0.7789816,0.07239671,0.1216838,-0.1556103,0.60441357,0.3183003,0.15425545,0.238546,-0.15002137,0.29972318,-0.0041465866,-0.035214327,-0.06419059,0.03873209,-0.3385722,-0.07762525,0.002921988,-0.068542905,-0.42976752,0.13447845,-0.31179008,0.25150296,0.09801207,-0.0011331034,0.20263653,-0.03647376,-0.07574847,0.1786343,-0.22590844,-0.036169395,-0.042108994,-0.4961603,0.0782224,0.12129405,-0.07280045,-0.1394957,-0.24871491,-0.05690593,0.4693244,0.23017536,0.2494804,0.47947705,-0.14536647,-0.34407783,0.31781942,-0.1043691,0.15588693,-0.075820975,0.14396945
rotasi_tanaman,0.38237828,-0.013772873,0.16503051,0.18384442,0.39593074,-0.51968086,0.17980802,0.002976833,-0.38989705,0.12945445,0.15094534,0.056493867,-0.2581318,0.21757348,0.10002113,0.3227322,-0.06689038,-0.10163588,-0.12213824,0.5677501,0.10254165,0.23060323,0.4594996,-0.33133733,-0.020815257,0.38719875,-0.08369063,-0.1631599,0.12895045,0.014522552,-0.19834745,0.10216698,-0.14200702,-0.25454795,-0.1491157,-0.3029414,0.4764761,0.04395961,-0.21649855,0.2584376,0.08743334,0.38646278,-0.10034763,-0.2084494,0.2966472,-0.11531351,-0.1539057,-0.06052892,0.28038135,0.2687873,-0.095822535,-0.08850223,-0.39398524,0.49388295,0.40356532,0.28468573,0.23948836,0.19687933,-0.27180478,0.02353367,-0.18865177,0.31601512,-0.028874144,-0.17965348
Sooty_Mold,0.66121906,-0.45106068,0.3286259,-0.024149733,0.10097255,-0.1512169,-0.3772926,0.35567066,-0.34560844,-0.042071145,0.72551787,0.081009455,-0.23553608,0.1900997,0.21301791,0.50992507,-0.013457166,0.53953063,0.050694644,0.43616578,-0.20283806,0.30748227,-0.19909398,-0.13570368,0.3602194,0.51676476,-0.09002801,0.27928123,0.13455395,-0.15638147,0.155682,-0.52147555,0.11791512,0.007356228,0.014500775,-0.45617002,0.020062268,-0.047634784,0.4162634,0.00021562887,0.057818282,-0.12681127,-0.26028293,-0.32919332,0.05831994,-0.31963122,-0.045685247,0.110618725,0.123229355,0.44519684,-0.0892978,-0.0067949616,-0.010653353,0.4003227,0.6093305,0.04896841,0.47845295,0.022076901,0.04763326,0.005333807,-0.497369,0.40315604,0.008114809,-0.15553696
gugur_daun,0.3986378,-0.5395146,0.30999687,-0.17013519,0.03318242,-0.06611585,-0.44628915,0.19768842,-0.31802863,-0.058024913,0.61325777,-0.16933207,0.025983676,0.3110418,0.048702635,0.47148192,-0.21200186,0.3222295,-0.16756901,0.36653435,0.13961348,0.12494167,0.43096256,-0.27579623,-0.11220117,0.48660678,-0.04773372,-0.066448055,0.21519315,-0.42901644,0.16483995,-0.040661532,0.09904424,0.09488963,0.099211544,-0.7227706,-0.07225405,-0.20512415,0.39144915,0.48035246,0.35755652,0.055133738,-0.23517308,-0.29493904,-0.17632,0.061953995,0.3004929,0.071218506,0.016891368,0.40796435,-0.027649041,-0.106474236,0.39497772,0.30725408,0.5506156,0.21561639,0.26825944,0.016077273,0.08632591,0.055410985,-0.54165596,0.09113946,-0.014379336,-0.061863713
dipengaruhiOleh,0.03740223,0.1786013,0.5721692,0.35227305,0.4609144,0.5421978,-1.0180099,-0.37337106,0.023057282,0.000928355,-0.18759146,-0.6382217,-0.8720073,-1.0120838,0.67488366,0.6496399,0.74452823,-0.025780085,0.70847607,0.14245553,0.7019909,-0.16692258,-0.053103335,-0.008834805,0.11758102,-0.04631273,0.087947756,0.7088558,-0.47084084,0.18585642,-0.3453359,-0.100717776,-0.11800913,-0.04574669,-0.528416,-0.66605765,0.26849428,-0.6025653,0.033368047,-0.07698407,0.56173664,0.0070523117,-0.44154185,-0.2045824,0.16349487,-0.2722526,0.0424028,-0.73948646,-0.2564684,-0.27096385,0.21206653,-0.36724895,0.53060913,-0.31037104,0.6061265,0.046882033,-0.09197347,-0.18607019,-0.12764373,0.03516498,-0.4037269,0.11964772,0.46449262,-0.32223332
FaktorLingkungan,0.21201774,0.4081764,0.56793857,0.2776339,0.49654353,0.7085044,-0.84930426,-0.4668336,0.047235776,0.029471414,-0.19022025,-0.7149357,-0.9377492,-0.916104,0.55535567,0.56625456,0.67077553,0.090132274,0.8762606,0.115914315,0.7851708,-0.17087072,-0.0891047,0.22327039,0.11223672,0.021570263,-0.13166212,0.70200896,-0.5815322,0.019635614,-0.34428728,-0.18218753,-0.19384342,-0.03945696,-0.39934745,-0.69267565,0.16499361,-0.7744992,-0.06529046,-0.07512904,0.4321372,0.22288524,-0.51096237,-0.09495726,0.09816726,-0.1393881,0.017941015,-1.0063564,-0.15518467,-0.23257418,0.39786366,-0.2933741,0.5614962,-0.012836655,0.8316235,0.01812516,-0.062020287,-0.36108798,-0.21606033,0.15156183,-0.24272901,0.006638076,0.5749683,-0.18526714
Nitrogen Deficiency,-0.034089487,-0.3087351,0.5975184,0.15120532,0.3923177,0.0104440125,0.019982606,-0.50708985,0.0020537092,-0.112070665,0.22856732,0.12223042,-0.30889755,0.3126752,-0.10572127,0.44871676,0.029204957,0.1580747,-0.056770835,0.23252407,0.19477132,0.5524386,0.29541782,-0.22287463,0.38946626,0.41129905,-0.21973571,-0.2241029,0.24567261,-0.13945971,0.44032738,-0.2391545,0.014467807,0.35266596,-0.006785745,-0.42255512,0.052850533,0.2578345,0.13148563,-0.026432376,-0.0188517,0.3536657,0.46573895,-0.23227726,-0.060508527,-0.9337776,-0.22257698,-0.19006316,0.47894248,0.12849064,0.2647916,-0.042867877,-0.26091382,-0.08940027,0.57859427,-0.31047526,0.35145485,-0.24977855,-0.36731443,-0.101140685,0.0014162699,-0.197269,0.041994706,-0.43438432
Sugarcane_Pyrilla,0.7136271,-0.23773815,0.13097715,0.18908426,-0.14703701,-0.38269994,0.0859959,-0.19544257,0.07965745,0.084952794,0.42239815,0.08129557,-0.3503187,0.012794999,0.07169205,0.54975563,0.18849532,-0.17990397,-0.084920116,0.31330758,0.25007662,0.37945637,0.56179833,0.47197312,0.06739114,0.30509654,-0.46191743,-0.010254013,0.4199784,-0.24364576,0.040377587,0.035410717,-0.12534747,0.10350191,-0.43177876,-0.32714328,0.0317561,-0.12767687,0.26159996,0.12824859,-0.38261655,0.24542844,0.46887287,-0.5340127,0.030988224,-0.15084307,-0.18174453,-0.113992766,0.05989281,-0.026976183,-0.060282875,0.26228848,0.061350655,0.5240059,0.34446865,0.35557207,0.010712689,-0.17248014,-0.19551171,-0.006185683,-0.3110899,-0.0020599386,0.13971123,-0.14647289
Fall_Armyworm,0.60312796,-0.5413479,0.47436747,-0.11537446,-0.11910564,0.00619553,-0.15115261,-0.33556506,-0.27245066,0.12472442,0.48674202,0.14079037,-0.3991591,0.31347418,-0.09650527,0.4076325,-0.030392502,-0.114630476,-0.2891504,0.3746776,0.38063422,0.48052657,0.21539791,-0.15631694,-0.110695034,0.26138163,0.07890923,-0.06404397,0.009672368,-0.31632245,-0.3518532,-0.29463786,-0.10814837,0.19344395,0.06653783,-0.5255361,0.11986949,-0.20072964,0.05274057,0.28230178,0.16244535,0.18244427,-0.14187504,-0.3695354,0.06304282,0.13282329,0.123606406,0.25130445,0.39247978,0.098929584,0.33274502,-0.13647121,0.1344835,0.3432884,0.5983614,0.39805955,-0.0058391984,0.073971346,0.029362055,0.07116076,-0.0798013,-0.15431559,-0.19393262,0.032298956
chlorpyrifos,0.5002617,-0.04536771,0.46960106,0.248055,-0.31590596,-0.19517726,0.04741923,-0.09721149,-0.1288711,-0.007921381,0.3523985,0.060435303,-0.1130867,0.04438908,-0.13430607,0.13784325,-0.10826444,0.18403733,-0.22296953,0.66120833,0.39507827,0.4705878,0.31894913,-0.106371984,0.0048350473,0.32377008,-0.10455975,-0.0486215,0.1228495,-0.20378928,0.12268332,0.027043,0.08435667,-0.027672967,-0.10258454,-0.8827962,0.040379323,-0.14586,0.24270104,0.15334721,-0.0940072,0.03583014,0.1380957,-0.4597553,0.001878598,-0.14012992,0.0027278813,0.16902982,0.23191743,-0.03682501,-0.038134795,-0.09979102,0.5308965,0.52042675,0.21469781,0.40907535,-0.10880486,-0.07907009,-0.043535944,0.01025582,-0.06260992,-0.22283301,-0.0023978394,-0.19305818
na61ff444636d4a939718f3d4b2f8028ab6,-0.0226403,-0.10430428,0.23592721,0.039957136,0.40425956,0.110610105,-0.45466444,-0.49855363,-0.15994783,-0.6135659,0.4927548,-0.49821255,-0.05478514,-0.37323502,0.25324854,0.67862153,-0.06831164,-0.31027123,0.42274594,0.23881122,0.27949092,-0.20853803,-0.40840507,0.26787913,-0.26242682,-0.05065561,-0.2259115,0.24588034,0.12560363,0.6747055,-0.4612416,0.56442237,0.13868625,0.18881167,-0.5690366,-0.24707161,0.21611066,0.09771382,0.18205297,-0.19600233,0.20673965,-0.05629635,-0.1613722,0.027146103,0.25841522,0.0011038979,-0.064440556,-0.75826514,-0.04470098,-0.3056756,0.34472668,-0.7939803,0.47202325,0.1341686,0.34763816,-0.41862673,-0.11621187,0.4256223,-0.036969397,0.25197932,0.3693829,0.1430795,0.3193538,-0.36466324
Hama,-0.04809804,0.4342086,0.25523472,0.07763282,0.3721915,0.23824376,-0.55283153,-0.28841114,-0.28665996,-0.2639833,0.5033608,-0.16937885,-0.4142112,-0.040156107,0.194122,0.50189066,0.036925763,-0.4035754,0.545515,-0.094530605,0.2874265,-0.33533117,0.045427784,0.2684099,-0.23378742,-0.09314177,-0.1407241,-0.0280348,0.14054693,0.58676636,-0.4608161,-0.24853174,-0.09405222,0.12557742,-0.3384706,-0.3378057,0.38342595,0.04150737,-0.076523446,0.08386789,0.054872453,-0.17737578,-0.16495737,-0.2345123,0.18686457,-0.32971156,-0.0062287413,-0.8079057,-0.063783735,-0.49191105,0.023145283,-0.82834834,0.6072133,-0.038136072,0.26368868,-0.48096934,-0.31467736,-0.027689451,0.028142005,0.26416275,-0.21197577,0.28180152,0.25507322,-0.26671383
na61ff444636d4a939718f3d4b2f8028ab32,0.18179147,0.5899466,0.017401319,-0.3249204,-0.048797354,-0.11384964,-0.12552081,-0.5943195,-0.052694872,-0.7751397,0.21897589,-0.7687179,-0.37362498,-0.38104942,-0.101583995,-0.020000378,0.11085019,-0.42312315,0.14835349,0.43735406,0.15141681,0.11171417,-0.41335168,0.14069495,0.09685054,0.34994996,-0.25810626,0.22825871,-0.096446335,-0.069875196,-0.35807678,-0.051805865,0.54172057,0.023786854,-0.34491476,-0.124026515,0.6232628,0.07918924,-0.17718826,0.18092434,0.3183982,-0.2269729,-0.075381614,-0.14788549,0.21016237,-0.1709192,-0.15193005,-0.19073181,-0.028778877,-0.5089641,-0.022211853,-0.73817605,0.37248373,-0.10976775,0.49885944,-0.55271465,-0.16522236,-0.1313442,0.07473222,0.9685811,-0.251174,0.3037921,0.23062181,-0.25514653
na61ff444636d4a939718f3d4b2f8028ab33,0.06173266,0.20976181,0.36124453,-0.46989155,-0.14290442,-0.06782227,-0.25968838,-0.44905525,-0.38324133,-0.760302,0.04198286,-0.71753997,-0.45580748,-0.13134156,-0.3529377,0.19340333,-0.058672443,-0.58719504,0.45408937,0.38579795,0.22689332,0.104426935,-0.35817522,0.20174994,0.116590545,0.22475567,-0.5244884,0.3288873,0.115068026,0.19183375,-0.38334927,-0.20187396,0.60612166,0.24914607,-0.06755911,-0.18657859,0.46154413,-0.07482539,-0.2520427,0.05168477,0.51832926,-0.10579207,-0.119099006,0.0052504186,0.4093498,-0.10432462,-0.24839549,-0.014633339,0.41076916,-0.1634928,-0.4518783,-0.78865594,0.34209076,-0.35298884,0.3442432,-0.500366,-0.27176374,-0.38532966,0.025526028,0.74709153,-0.23524578,0.3485192,0.42086503,-0.3252289
neem_oil,0.34478417,-0.3513784,0.13058083,0.08432813,-0.21697031,-0.001040428,-0.2264751,0.14304937,-0.1691533,-0.25350448,0.5643453,0.219892,-0.08218011,0.44474775,-0.008072688,0.35132638,-0.12218977,0.28247312,0.024502218,0.5132794,0.14753444,0.48074114,0.16071807,-0.21920498,0.009470467,0.38268024,-0.023193926,-0.21326469,0.08127936,-0.16607963,0.47025645,0.19076036,0.054837525,-0.22912382,-0.100079335,-0.72967315,0.09480395,-0.12747933,0.31580684,0.2192987,0.24328804,0.19895633,-0.14492463,-0.40344933,0.18623954,0.08320767,0.011583776,-0.021222543,0.13588645,0.42293248,0.38451037,-0.31420037,0.374829,0.52502704,0.2626241,0.24899472,0.04843042,-0.15260531,-0.04526804,0.1324862,-0.4455193,-0.052071884,-0.25184116,-0.14622207
Brown_Stink_Bug,0.26285157,-0.43969893,0.5748947,0.16696174,0.13724858,-0.040514283,0.30336308,0.0062938565,-0.4803084,0.09019786,0.1401536,0.07847537,-0.5019882,0.048233934,-0.0060002035,0.18946534,0.2902064,-0.27397773,0.06251622,0.5406442,0.24146684,0.17724015,0.68578655,-0.3169445,0.39166665,0.6915499,-0.21587324,-0.13338582,0.12799731,-0.4162827,-0.3258506,-0.20225665,0.08589481,0.015163251,-0.14616857,-0.56015974,0.44891,-0.18451947,0.25253725,-0.077414796,0.21500118,0.1666715,-0.13567363,-0.5124258,-0.0046499097,0.2337445,-0.029859964,-0.105791,-0.029308565,0.3016956,0.011385119,0.16868882,0.11889499,0.07657786,0.07812999,0.08151653,0.11734285,-0.16562252,0.0088444995,0.028396497,-0.043333676,0.0069183432,-0.47439057,0.34158924
daun,0.4185843,-0.25611773,0.31121027,0.17823592,0.30219162,-0.28755552,-0.055626106,0.01860321,-0.26544642,0.072947,0.09212718,-0.053951267,-0.11678512,0.14405422,0.09430186,0.4957177,-0.05667601,-0.067674145,-0.14387268,0.39592537,0.07144494,0.40499747,0.31163657,-0.2785878,0.0023996774,0.33764002,-0.067827955,0.049506344,0.13024111,-0.17135194,0.16085497,0.05626272,0.023165848,0.03742254,0.00043833634,-0.43103582,0.24333844,0.07380112,0.086032495,0.12327273,-0.09286898,0.12373729,0.26421434,-0.38285437,-0.057865605,-0.17085023,0.043880455,0.22538468,0.17192687,0.07975175,0.18381654,-0.15025614,0.12067393,0.1512001,0.28736266,0.16525242,0.29944345,-0.11362227,-0.23359852,-0.04302355,-0.35514647,0.12634675,-0.15930916,-0.17402112
ferrous_sulphate,0.11302285,-0.63561565,-0.013785931,0.23246631,0.53081834,0.15665056,0.021340385,-0.42771578,-0.195201,0.2806381,-0.16081473,0.29040575,-0.40815762,-0.015052522,0.08289154,0.6146369,-0.5446142,-0.14309864,0.18347855,-0.037409376,0.2035932,0.2929022,0.24366325,0.21331501,0.23348148,0.3221196,-0.11928127,0.4138589,-0.077155344,-0.44919282,0.19248131,-0.093920864,0.49694243,0.27232313,-0.3897111,-0.6320938,0.44294608,0.49890554,-0.13304728,-0.122635886,-0.019319596,0.15429679,0.3043439,-0.44048688,-0.43145218,-0.2655601,0.1991034,0.20087743,0.52038753,-0.08495695,0.29659888,-0.119401455,0.1295912,0.33137044,0.08495644,0.14683044,0.53994656,-0.16210945,-0.516848,0.018363185,-0.28554645,-0.03528736,-0.016906261,-0.42472222
Foot_and_Collar_Rot,0.08585107,-0.4272468,0.10440856,0.24792895,0.006358379,-0.36312008,0.22637948,0.35108355,-0.2508769,-0.13207166,0.15318272,-0.14172083,-0.25566563,-0.21259674,0.2001394,0.66468066,0.063035294,-0.108656734,-0.1299116,0.0821643,0.19491223,0.594955,0.44471303,-0.078591034,0.13684928,0.4169454,0.2009497,-0.08749804,0.16762705,-0.4455327,-0.23958299,0.02777132,0.08995608,-0.05481242,0.21355695,-0.3303848,0.13907522,0.41601497,0.2867134,-0.2205374,0.19647387,0.029927721,0.060132667,-0.14592531,0.075461045,-0.3556785,-0.3411802,0.09447258,-0.0038566354,0.33729288,0.076240964,-0.39896128,0.14085802,0.40394664,0.62195396,0.029472055,-0.08225568,-0.04633102,-0.57686275,-0.04055777,-0.34930548,-0.19684032,0.023008982,-0.13186857
drainase_baik,0.03420761,-0.35675323,0.12122633,0.32573673,0.6037115,0.017583499,-0.048281383,-0.4434615,-0.31651747,0.09566923,0.05573781,0.037443746,-0.37474325,-0.021326737,-0.021534743,0.487181,0.022947857,-0.17343004,0.13234998,-0.055022404,0.327512,0.7686535,0.28638947,-0.03727614,0.26016417,0.40398473,0.054470766,0.11625781,0.36850443,-0.34598252,0.3392396,-0.09319656,0.4546643,0.17174256,0.13897572,-0.21017164,0.15107507,0.54344654,0.049342595,0.0006157232,-0.10686093,0.09350422,0.33981335,-0.11421001,-0.106726766,-0.3069517,-0.09255419,0.099752896,0.087336205,0.38636437,0.046881624,-0.15943131,0.28083074,0.19489393,0.6581789,0.190444,0.38422287,-0.0788733,-0.6406015,-0.046049215,0.08323431,-0.067013346,-0.01667466,-0.19902787
Fruit_Molds,0.21634242,-0.56452686,0.31415927,-0.13873655,0.70583475,-0.3772235,0.48418957,0.487338,-0.18156675,-0.02087218,0.7244509,-0.018318439,-0.43357846,0.25636742,-0.05094891,0.28900996,0.18472904,-0.21916956,-0.12640986,0.10577464,0.30714488,0.50564516,0.22597829,-0.35501948,-0.013060274,0.64473164,-0.22109495,0.07804238,0.23479797,-0.25860205,0.03484563,-0.26573762,0.17412804,-0.37953904,-0.20632139,-0.45402342,0.13859703,0.1616111,-0.05462586,0.11476167,-0.20754756,-0.1578369,0.000971705,-0.34259087,-0.06688251,0.18067405,-0.41626567,-0.018248945,0.3854856,0.060918387,0.04851758,0.2424828,0.36893657,0.25388026,0.3588003,-0.34109476,0.16733903,0.14096451,0.030269412,-0.10809675,0.17383276,-0.107012436,-0.23121436,-0.041597743
penyiraman_tepat,0.21494476,-0.5888712,0.27654237,-0.065553784,0.6618867,-0.053862326,0.44784284,0.46028236,-0.34316602,0.14131664,0.75733733,-0.19287382,-0.5698023,0.16212903,-0.1793765,0.104798414,0.34333405,-0.19390856,-0.115823865,0.28162622,0.2335006,0.50771993,0.146773,-0.2877445,0.10929775,0.5709131,-0.25440523,0.03128442,-0.2311851,-0.50497884,0.010730188,-0.034460466,0.107534714,-0.53856164,-0.2408375,-0.47111884,0.051620647,0.11634371,0.07657711,0.010195892,0.08665251,-0.06501427,-0.13487372,-0.3551978,-0.11950902,0.11509068,-0.3385324,-0.22715802,0.66089207,-0.1807317,0.099060975,0.37594742,0.47831148,0.020807901,0.5468421,-0.22680838,-0.040604595,0.06755614,-0.1047937,-0.23866369,0.1554062,0.09885751,0.10166665,-0.08823978
biji,0.3300827,-0.5424443,-0.04297454,-0.06014042,0.18423198,-0.09834029,0.22701867,0.3277616,-0.4503169,0.101350635,0.25792047,0.12441239,-0.46853405,0.20962118,-0.112139046,0.1992197,0.2525067,-0.033975914,-0.25487807,0.20152743,0.42339617,0.37531292,0.3688649,-0.25549766,0.35153487,0.5262044,0.036605738,0.026860476,-0.008626738,-0.36909655,0.036158036,0.0871241,-0.089649215,-0.06310534,-0.19349793,-0.4803061,0.5695908,0.071650624,0.14665583,0.20745307,-0.17271484,0.08027947,-0.5145904,-0.30711555,-0.0005520459,0.31845626,-0.15026858,-0.27746853,0.1522779,0.2787133,-0.009494185,-0.053293113,0.21927941,0.06444627,0.68393284,0.17518616,0.13060337,-0.07951875,-0.20986563,0.20817064,0.24142806,-0.13717775,0.08457621,-0.42589933
spiroplasma_kunkelii,0.29345918,-0.07683327,0.6830211,0.17339216,0.3165233,-0.26584873,0.42627013,0.022975037,-0.08357285,-0.17513046,-0.19297792,-0.077667795,-0.1651509,-0.11395879,-0.13001393,0.835308,-0.1696909,0.20131092,-0.21594994,0.14650054,0.15038724,0.25944787,-0.023197453,-0.20579271,0.19379552,0.44332993,0.23606466,0.4474827,0.11784446,-0.07965992,0.009222634,-0.08439761,-0.14375108,-0.35608956,-0.06650571,-0.51007044,0.4281255,0.18203613,-0.33820716,0.35731718,0.28560078,0.25643837,0.34635043,-0.6343479,0.20560707,0.23944928,0.1636811,-0.51810044,0.30625626,0.31791347,-0.07405164,0.40517232,-0.05583938,0.3351982,0.40473065,0.16063133,-0.13352722,0.26930928,-0.28704968,-0.13441867,-0.34868562,0.10304079,-0.2676765,-0.37468255
na61ff444636d4a939718f3d4b2f8028ab8,-0.02101187,-0.07328731,0.023839595,0.12749048,0.23648925,0.15912984,-0.24264975,-0.5490908,-0.27701798,-0.7391535,0.51746166,-0.6988397,-0.2235811,-0.3784603,-0.029120196,0.40334985,0.008091703,-0.52632916,0.22812904,0.7097745,0.4352171,0.080004714,-0.58862746,0.1308835,-0.1612686,-0.12272871,-0.66733545,0.4053831,-0.10228126,0.25904542,-0.48125252,0.2826552,0.23728617,0.18498917,-0.17055751,-0.20560373,0.32901347,-0.1544068,0.11525882,0.12375878,0.32933605,-0.18745904,0.030981358,-0.13340552,0.32762584,0.13883579,0.25995505,-0.4093848,0.01201137,-0.4393522,-0.22196372,-0.6081835,0.07960999,-0.091931425,0.097143754,-0.6206624,0.1523817,0.041771255,0.017264334,0.6982126,0.098914966,-0.09300797,0.18096153,-0.335259
na61ff444636d4a939718f3d4b2f8028ab31,-0.059626732,0.58249485,0.27942514,-0.40089604,0.5637185,-0.07900138,-0.29468498,-0.5201444,-0.38557646,-0.6383708,0.08578987,-0.61976033,-0.2297154,-0.3416755,-0.028569603,0.2535879,0.009420021,-0.51726633,0.23836404,0.52808845,0.19749507,0.10882935,-0.32127076,0.40824065,-0.00917879,0.24821265,-0.31014025,0.296283,-0.013578553,0.30728257,-0.4395079,-0.2694391,0.4284715,0.12054625,-0.41004804,-0.053572338,0.29916734,0.3372955,-0.17064835,0.23179147,0.015482517,-0.12633726,-0.4471931,0.031965513,0.054624937,-0.047937643,-0.13072297,-0.24063857,-0.31886798,-0.2569279,0.2969499,-0.6038224,0.23099232,-0.29983595,0.57648486,-0.2007588,-0.4345944,-0.3667022,0.1959796,0.68872136,-0.18368596,0.25753212,0.11833409,-0.36324343
Penyakit,-0.057456076,0.32884082,0.35311002,-0.22530027,0.30169463,0.091508016,-0.35695595,-0.26925287,-0.34105593,-0.63098156,0.13550164,-0.53300714,-0.26980206,-0.33960953,0.3093549,0.32985505,0.1689646,-0.39226362,0.06917205,0.1324299,0.44288886,0.10465324,-0.11607765,0.39599293,-0.39589733,0.05725,-0.5622033,0.38280433,-0.07864665,0.48817667,0.055399843,-0.121727206,0.07287453,-0.1124478,-0.23461321,-0.67485636,0.5578979,0.15034275,-0.16544095,-0.019650992,0.047017924,-0.30834234,-0.18454209,0.033472613,0.36536387,-0.19835787,0.112020314,-0.6248618,-0.27352938,-0.37698954,0.08242474,-0.6048509,0.099147655,0.07130856,0.068433665,-0.56080526,-0.17963976,-0.15079014,0.2387394,0.5712842,-0.0006888121,0.070854366,0.07658508,-0.1991076
na61ff444636d4a939718f3d4b2f8028ab27,-0.106964156,0.35382235,-0.008470225,0.01998456,0.5794987,0.055847097,-0.3426171,-0.20371279,-0.3123991,-0.7913352,0.40358406,-0.91679716,-0.2960763,-0.34665415,0.2717433,0.45496327,-0.12912956,-0.093430914,0.24985264,0.13877554,0.567174,-0.23541665,-0.045521244,0.3083183,0.020017024,0.20502892,-0.6587703,-0.012675343,0.18105944,0.44455278,-0.37827885,0.054377798,0.27453768,-0.19671758,-0.43656552,-0.38233492,0.77229446,0.038914457,0.17800987,0.5059397,0.26758763,-0.15236297,-0.068593845,0.19005919,0.013340277,-0.34330574,-0.10973113,-0.50204605,-0.08933397,-0.09876191,0.042450257,-0.35206255,0.13117678,-0.30561197,-0.29613897,-0.22560607,-0.12716877,-0.07733519,0.16986349,0.52416015,-0.3158082,-0.045271188,0.3125704,-0.18370424
na61ff444636d4a939718f3d4b2f8028ab28,0.027603723,0.3057714,-0.03485421,0.0046912027,0.20770243,0.3108636,-0.2521186,-0.487053,-0.26607603,-0.7391546,0.50039524,-1.0371103,-0.3953746,-0.5653531,0.0184996,0.40934858,-0.08945677,-0.12635116,0.24240962,0.6001707,0.47582424,-0.1227992,0.032664757,0.21255472,-0.030241122,0.15576236,-0.47783774,0.18274596,0.22395168,0.3402152,-0.49814552,-0.08253665,0.41580224,-0.2747301,-0.065085776,-0.32284328,0.3479498,0.11054995,0.023776282,-0.05174234,0.37205154,-0.41514096,0.022218477,-0.22793289,0.20770413,-0.16227734,-0.15377815,-0.36940733,0.015002997,-0.1361426,-0.3214053,-0.38711688,0.019639213,-0.19132408,-0.25249892,-0.63323134,-0.07008635,-0.3452135,0.22095144,0.5787468,-0.20194548,-0.02809583,0.20477092,-0.24122658
Maize_Lethal_Necrosis_Disease,0.4602493,-0.3115623,0.16212535,-0.031077681,0.49107,-0.5555836,0.038780447,-0.25298235,-0.47707707,-0.08255862,-0.09272566,0.4824294,-0.29878148,-0.19036737,0.19927152,0.35230264,-0.33490467,-0.037607983,0.15021223,0.62603843,0.016201502,0.36961362,0.52268434,-0.21690887,-0.0790535,0.050280143,-0.080849,0.28198415,0.01602877,-0.27569294,0.17011319,0.037266288,-0.4022858,-0.03525503,-0.10432526,-0.48911566,0.21463265,0.03832472,-0.13217464,0.06050275,0.07404514,-0.08474888,0.10166155,-0.4745683,-0.14392997,-0.08338231,-0.67255,-0.09843341,0.12905207,0.20004874,0.07020878,-0.004235223,-0.050238866,0.23027183,0.48449245,-0.0025936016,0.060942095,-0.07811372,-0.038580075,-0.14821747,-0.31709716,-0.1324695,0.10285987,0.047366973
kumbang,0.21826872,-0.06171789,0.135735,0.07282001,0.23196085,-0.44086632,-0.041265626,0.077844776,-0.41229293,-0.09943531,0.08836438,0.17440142,-0.26613727,-0.35499713,0.2657357,0.40190023,-0.2839553,-0.3107963,0.05855587,0.65551955,0.25509977,0.18036875,0.45620584,-0.111793846,0.15659529,0.12336513,-0.27767196,0.44242173,0.3477196,-0.240708,0.17714718,-0.06492561,-0.36017615,-0.48429465,-0.010279541,-0.23388706,0.19181131,-0.08672846,-0.15760624,0.018357236,0.15448694,0.19510438,-0.022401165,-0.6777274,-0.28588882,-0.19419649,-0.52272385,0.13984726,0.4002618,0.34296268,0.30861667,-0.10520603,-0.15089877,0.23088865,0.5672897,0.13438989,0.3286345,0.1782318,0.0112142945,-0.17007361,-0.09548099,0.038454793,0.015790418,-0.022775779
layu,-0.15840437,-0.1362275,0.57041377,0.42516226,0.20286062,-0.18787454,0.078909405,-0.16801995,-0.29678607,-0.032926243,0.071454465,-0.05961536,-0.36711955,-0.035679087,-0.46340594,0.39615884,-0.08202486,0.0935516,-0.18878771,0.41391703,0.099548504,0.7065915,0.23765896,-0.0849189,-0.04659668,0.4258169,0.15997277,0.072684854,0.40903524,-0.23557977,-0.005580091,0.114441834,0.09520909,0.034499403,-0.16744569,-0.3908659,0.15418406,0.12830828,0.18473044,0.14720944,-0.24815771,0.039574683,0.25503343,-0.39390507,0.38786197,-0.23734455,0.08606905,-0.103341304,0.19338465,0.39229688,0.10149283,-0.032661073,-0.015282998,0.16160421,0.470086,0.22154355,0.08675788,-0.18037543,-0.4526794,-0.15888028,0.008371191,0.06278754,-0.01702467,-0.08323612
jamur,0.55227995,-0.6363821,0.1888597,0.08910093,0.43046135,-0.0275644,0.16486716,0.42048547,-0.20244946,-0.14505374,0.43091077,0.074313596,-0.10264324,0.12395592,0.0509075,0.3640153,0.0604838,-0.30096602,0.038361344,0.24502382,0.10635371,0.3999307,-0.090902716,-0.2142559,-0.10899663,0.16675793,-0.15799524,-0.12642783,0.054216485,-0.32281044,0.099289574,-0.06702905,-0.20811057,-0.18541212,0.059970625,-0.38817453,0.37406728,0.25267175,0.3857519,-0.12619564,-0.08464242,-0.11105017,0.0330908,-0.2248094,0.09463418,-0.08969722,-0.2357435,-0.020255558,0.12640558,0.33121508,-0.012672218,0.0009585014,0.29892355,0.17600182,0.66266865,0.14777349,0.34652996,-0.124790415,-0.35362837,0.053479183,-0.21322913,0.37214035,-0.14435151,-0.18377079
ammonium_nitrate,-0.13619128,-0.21615896,0.5621755,0.24077958,0.46869525,0.040646855,-0.12925068,-0.43142423,-0.049410984,-0.16762586,-0.00511711,0.116817206,-0.46483836,0.21296221,-0.12892832,0.5212088,0.06593993,0.06276776,-0.2601492,0.3056907,0.32983834,0.4738615,0.25799885,-0.21651421,0.41457903,0.26750654,-0.113925144,-0.09451455,0.21173836,-0.33440778,0.43496946,-0.15029517,0.013255585,0.43276316,-0.07200168,-0.29599625,0.096555814,0.23880966,0.14397956,0.11853914,-0.035030745,0.36219886,0.5605535,-0.26735294,-0.16090094,-0.89220726,-0.23977582,-0.19018573,0.36975053,0.24450517,0.27071416,-0.099927485,-0.27507153,-0.1087564,0.68832654,-0.24507831,0.29718986,-0.20859745,-0.25963792,-0.19624746,0.008344766,-0.30070382,0.001943173,-0.4664297
Zinc_Deficiency,0.11071127,-0.36830115,0.15587153,-0.0020651645,0.13947412,-0.41936243,-0.109307624,-0.202049,0.2375646,0.5729546,-0.065266445,-0.0942586,-0.4342689,-0.0021538706,0.24750364,0.8448867,-0.6127263,-0.23434244,0.03704612,0.4731941,0.18108658,0.40951383,-0.067015514,-0.3916499,0.3250163,0.57004935,-0.1560535,0.05695998,0.10918562,-0.14895962,0.2800021,0.16528755,-0.14096567,0.38280338,-0.12001853,-0.44796762,0.33780584,0.13770598,0.11833164,-0.07697275,-0.057119735,0.3241335,0.39022896,-0.0630764,-0.1661617,-0.32023954,-0.25444102,-0.10012254,0.3423353,0.19208145,0.18802176,0.074579865,0.13148722,0.2039406,0.25766283,0.022300817,0.2212066,-0.5768119,-0.13266502,-0.10621891,0.022130638,0.18639113,-0.113746315,-0.31437665
nekrosis,0.21732728,-0.295792,0.18176201,0.2988622,0.06667364,-0.424752,-0.06456369,0.005721019,-0.3015662,0.32986963,0.16167282,-0.09308991,-0.12775306,0.05548574,0.02368388,0.5678582,-0.040728457,-0.18779454,0.014749336,0.24653634,0.08081763,0.52349514,0.47122833,-0.2020536,0.0631051,0.20766719,-0.04952893,0.35050514,0.22911786,-0.21928887,0.12846583,-0.04946087,0.03762852,0.024944201,-0.18260379,-0.34439376,0.5177388,0.06887703,-0.080883816,-0.26155972,-0.22412595,0.11649215,0.1488142,-0.5355092,-0.26065135,-0.0673907,-0.17967077,0.23940125,0.27408043,0.16549642,0.16080774,-0.2279072,0.12701981,0.19540606,0.258325,0.232829,0.18527777,-0.18937294,-0.21824558,-0.083814524,-0.13703652,-0.035489984,0.11216503,-0.1635311
insektisida_vektor,0.33098558,-0.21847709,0.12732849,0.14794002,0.13874699,-0.47565603,-0.015939584,-0.039504915,-0.5423158,-0.1524125,0.035418034,0.15601186,-0.32762524,-0.15652898,0.32194656,0.49492925,-0.37279567,-0.14957073,-0.035890598,0.5299102,-0.010565849,0.19882205,0.32533628,-0.2357672,0.31717908,0.11377853,-0.36323738,0.3570614,0.30123565,-0.18270983,0.111713156,-0.1337481,-0.4282477,-0.3239089,-0.16819206,-0.17334789,0.09883032,0.10894696,0.020063085,0.34440663,0.23698221,0.22607669,0.0671114,-0.7077583,-0.11240406,-0.25178435,-0.43129995,0.23865907,0.3115726,0.033990316,0.024336038,-0.073944695,0.053078037,0.11088213,0.50744843,0.04911565,0.20721604,0.1550113,-0.114950016,-0.1161534,-0.012955323,-0.06075089,-0.21867965,0.12903017
pucuk,0.56104994,-0.3139733,0.57908505,0.09203374,-0.04483533,-0.42096162,-0.3182917,0.12820444,-0.2287318,0.23301122,0.48012835,-0.07767161,-0.13762553,0.07155868,0.089013785,0.4518939,-0.01406179,0.07050901,-0.061739378,0.65810835,0.19931975,0.49109933,0.31330258,-0.16779537,0.047541086,0.20588146,-0.12245653,-0.1850218,0.047393087,-0.3280273,0.0438617,0.32910538,0.25816596,0.478661,-0.61419827,-0.34617838,0.05357054,-0.020144213,-0.59209836,-0.06111383,0.09923173,0.25399283,-0.20140441,-0.35486183,0.22978173,0.038872663,0.072369635,0.10127345,-0.02544114,0.08803483,0.4106468,0.13363445,-0.1857481,0.08250985,0.36871162,0.31027946,0.059403483,-0.37795272,-0.40701246,0.037456986,-0.11163216,-0.18515486,-0.31317323,-0.14331268
hindari_pH_tinggi,0.41689628,-0.39796913,-0.060168494,0.41831285,0.0006211719,-0.32501638,-0.17573711,-0.30122545,-0.14316085,0.41637537,0.1367476,-0.013907369,-0.38142428,0.015670162,0.020426666,0.6088188,-0.46617144,0.017526474,0.016961653,0.2818478,0.27557775,0.03721731,0.15962029,-0.33588734,0.29134092,0.3604024,-0.09334526,0.21983351,-0.022382049,-0.31395912,0.25362596,0.119080745,0.3079451,0.3040488,-0.11576665,-0.5375184,0.503491,0.6575955,-0.1569249,-0.09729933,-0.104510374,0.34828278,0.4431445,-0.14702652,-0.3800316,-0.109890416,-0.015312389,0.00053952873,0.44874537,0.0073016156,0.3692103,-0.1494568,0.10717968,0.17276578,0.23866406,-0.12117836,0.2845344,-0.4337832,-0.32259938,0.008387179,-0.15896961,0.025205603,-0.12184527,-0.2001383
Spotted_Stemborer,0.42893508,-0.0131618045,0.33884162,0.06994446,0.3668373,-0.3515528,-0.050387368,-0.08282117,-0.3819579,-0.30326536,0.21679582,0.25665936,-0.0017854632,0.31670094,-0.07965659,0.5873597,-0.21621592,-0.180376,-0.35993513,0.52420616,0.15450741,0.43982935,0.39284495,0.058804445,0.1790142,0.6389124,-0.28895918,0.12723048,-0.15897118,-0.3498883,-0.24380295,0.15349606,0.07160623,0.07383594,0.17115402,-0.2121372,0.3554552,0.071164206,0.17263627,-0.3153798,-0.07126889,0.41136506,0.096135736,-0.26872385,0.20969439,0.16698894,-0.08470039,0.0415649,0.19742645,0.096380904,0.11296288,-0.13647303,0.19663261,0.36348817,0.28917062,0.2934747,0.32993564,-0.14590424,0.13587524,-0.32731032,-0.16745348,-0.3050479,0.087318204,0.14072356
Spotted_Maize_Beetle,0.4943387,-0.110353164,0.07699566,0.11304525,0.46781674,0.053986333,-0.089321926,0.073718704,-0.12517647,0.20659095,0.21464095,0.09871201,-0.38463,0.092901535,-0.050026342,0.35700545,0.10124004,0.06390514,-0.12562022,0.6763155,0.2536645,0.3711988,0.7913697,-0.17450507,-0.05816638,0.517675,0.104025334,-0.28539634,0.22727086,-0.04079239,-0.20763442,-0.03166353,-0.15391874,-0.08634601,-0.2515051,-0.60637015,0.19809522,0.1641686,0.13643955,-0.05187058,-0.09860077,0.7704596,-0.3493708,-0.3131799,0.48945495,0.2505374,-0.050972097,0.31427646,0.3941219,0.42796734,0.08357455,0.025851134,0.28114912,-0.09682952,0.15293008,0.05902081,-0.024526276,0.3131475,-0.055591647,0.3202934,-0.04525351,0.018569015,0.20014805,-0.23525037
Cochliobolus carbonum,0.6230453,-0.37446383,0.611351,0.079937495,0.88423264,-0.08554314,0.07208014,0.19692312,-0.08987915,0.25033355,0.12454366,0.095678054,-0.48821357,0.566292,-0.43387553,0.43247965,0.2048348,-0.0033984645,-0.32051373,0.6704619,0.3337155,-0.046353787,0.19759776,-0.027349874,-0.008703798,0.18932836,-0.21414772,0.0009573675,0.0390499,-0.20921834,-0.2458675,0.26730287,-0.20393889,-0.5505786,0.10146156,-0.3341996,0.21392861,0.32295886,-0.04597327,0.056361634,0.19035421,-0.18698041,0.12337263,-0.1258058,-0.1808874,-0.3266391,-0.58156276,0.43208125,-0.07266587,-0.0061056106,-0.17961128,-0.08640651,0.09735843,0.51700246,0.36855745,-0.07907074,0.44313645,-0.17232789,-0.307395,0.4372565,-0.28013808,0.5309762,-0.2029825,-0.03178057
deltamethrin,-0.26433256,0.03152218,0.34037468,0.44177675,0.121085696,-0.16603626,0.16874623,-0.3445969,-0.39603853,0.093888976,0.37183502,0.29061502,-0.099285804,0.4159941,-0.042012542,0.59423625,-0.08596095,0.11792111,-0.07750362,0.45543727,-0.07627286,0.24839331,0.110694155,-0.18105489,0.15523796,0.35094485,-0.6425601,0.021971513,-0.1591824,-0.10991443,-0.23484084,0.22075428,0.15103114,0.027344987,-0.02497574,-0.61303735,0.29207185,-0.032487437,0.17338973,-0.23804799,-0.08675735,0.20455784,0.0038934404,-0.44160804,0.18066038,0.030632349,-0.45302007,0.13298132,0.30855393,0.4129719,-0.19550729,-0.18683343,0.17573817,0.5218452,0.45060077,0.5280019,-0.054727662,0.07100987,0.02910753,-0.058045413,-0.5275221,-0.6660345,-0.09229136,-0.094691254
DefisiensiUnsur,-0.008505506,0.30704856,-0.04453389,-0.2231996,0.22761457,0.12645902,-0.39634517,-0.2793443,-0.24905525,-0.9113563,0.2650018,-0.7451617,-0.2626892,-0.41228965,0.02376149,0.2984518,-0.036338326,-0.4516711,0.21982798,0.4006924,0.47423747,0.1940143,-0.04181879,-0.2495308,-0.21069609,0.2217302,-0.72318083,0.3406844,-0.027283391,0.25473702,-0.4271437,-0.06770573,0.30887267,0.048020456,-0.039608803,-0.119099386,0.46408936,-0.082587555,-0.06654452,-0.06159603,0.3116122,-0.20949419,0.0037460022,-0.014340403,0.412344,0.0131255165,0.33344775,-0.36869663,0.08373797,-0.3349279,-0.3061408,-0.6844733,0.158998,-0.037121158,-0.02128246,-0.42923442,-0.0064560617,-0.4450599,-0.02554678,0.3786281,-0.20638517,0.24587284,0.3005025,-0.36565486
Zea mays,0.29451898,-0.32968238,0.16883798,0.4294819,0.22317253,-0.27260408,-0.16918357,0.27117008,-0.17918514,0.5729607,0.08005602,0.46813634,-0.123463854,0.13011771,-0.25486636,0.5086632,-0.1142366,-0.1585291,-0.26399127,0.3656091,0.5431873,0.29230756,0.40153462,-0.5346867,0.0087484475,0.568354,-0.23684756,0.30728126,-0.020108612,-0.3636877,0.19536628,-0.47670332,0.33474302,-0.060802072,-0.33156633,-0.5186079,-0.08217151,0.18479598,0.6028171,-0.11990218,0.37747306,0.07319346,0.2979288,-0.10840867,0.68907624,-0.2952961,-0.45744443,-0.17207563,0.020320995,-0.030229472,0.27391654,0.18871109,-0.14937636,0.09234766,0.31199408,0.37165812,0.17058285,0.05579662,0.047958776,0.44879946,-0.18476021,0.046512533,0.091449134,-0.036123585
penurunan_hasil,0.9195471,-0.116944514,0.18872793,-0.33402655,-0.1674291,-0.46781495,-0.071737625,-0.07110253,0.058548614,0.11831821,0.26963985,0.10698321,0.10997784,-0.036532495,-0.02740252,0.5084543,0.42738533,-0.16158336,0.15286902,0.58663845,0.3330966,0.46652293,0.5848849,-0.009846627,-0.075771175,-0.1016002,-0.31939068,-0.03707879,0.21388517,-0.099672355,-0.128266,0.10446869,0.47668034,0.116536796,-0.45255575,-0.54454046,0.30550325,-0.04170535,0.0040445384,0.06616069,-0.11166469,0.7320103,0.26365685,-0.23716493,0.036313508,-0.19173887,-0.32254332,0.008146254,0.20330462,-0.040750716,-0.54259765,0.30957356,0.1233576,0.47732702,0.59744614,0.32956806,0.021250725,-0.034093007,-0.18152992,-0.27538997,0.11197528,0.02876014,-0.17983612,-0.33347672
npv,0.26384446,-0.106463976,0.05719682,0.035618693,-0.054424006,-0.37583447,-0.42848015,-0.16895907,-0.11527262,-0.083145864,0.41699266,-0.07027135,-0.3056705,0.16655935,-0.13329725,0.5224169,0.09643891,0.10695562,-0.22665204,0.526304,0.11934243,0.26909903,0.4415028,-0.109739736,-0.32058123,0.74336785,0.051122144,-0.54030323,-0.20226648,-0.358072,0.12944208,-0.11479721,0.014304883,0.18502054,0.16279902,-0.81749207,0.041216873,-0.25726533,0.046628464,0.3920345,0.4646973,0.049966563,0.023252696,-0.3724823,-0.09596538,-0.13339892,-0.033002168,0.10896141,0.3654183,0.24456248,-0.024605993,-0.021708386,0.86919266,0.24641266,0.10766179,0.46707174,0.38747257,0.3977243,-0.0010087212,-0.011387275,-0.2717616,0.12764539,0.1508482,0.02664726
virus_mlnd,0.32403505,-0.03126053,0.01647087,0.3039842,0.5297047,-0.380188,-0.023897087,-0.12391945,-0.42648965,-0.24148598,0.18172067,0.5057121,-0.23439382,-0.49860957,0.13410938,0.39396784,-0.5171221,-0.14610805,0.21890616,0.6067541,0.46077678,0.40979713,0.2952357,-0.14919648,0.1577804,0.19697346,-0.060095593,0.20370519,-0.022839468,-0.4376289,0.34096062,-0.10916751,-0.35740596,-0.3112977,-0.0071181143,-0.32183373,0.40029502,-0.04964751,-0.19846995,0.37772334,0.04444185,0.20333803,-0.079582796,-0.5422031,-0.27515474,-0.331563,-0.76415634,0.17643765,0.22731555,0.19028723,0.053633805,-0.017518107,-0.28091523,0.055831682,0.45558858,0.3011461,-0.083109945,0.061507873,0.18808447,-0.27566418,-0.32005203,0.05065393,0.016793339,0.05721309
Flower_Chafer,0.7928399,-0.0097536305,0.40316027,-0.13406484,-0.13088293,-0.1971905,-0.14171007,-0.091990605,-0.06105517,0.25623816,0.3795305,0.22337486,-0.060089238,0.08166604,-0.020402428,0.5306397,-0.013197056,0.031048387,-0.17020126,0.787944,0.23796888,0.33616748,0.8586072,-0.16100776,0.025593312,0.013875565,-0.34986457,-0.1694331,0.15279666,-0.3054903,-0.13433376,-0.18020819,0.34834155,0.07893307,-0.3764087,-0.2976727,0.30104318,0.1881364,-0.117745146,0.013325546,0.061606396,0.23651679,-0.09220042,-0.202471,0.42866728,0.179874,-0.44821513,-0.33286184,0.2743365,0.21576065,-0.21227947,-9.166658e-05,0.21982536,0.047493145,0.13338196,0.45022088,-0.05727485,0.14453177,-0.17485204,-0.4127339,-0.108179465,0.19599685,-0.46029213,-0.494381
wereng,0.29081452,-0.4313716,0.3398734,-0.06896299,0.23012057,-0.37566245,-0.16144958,0.24308097,-0.3257685,-0.28802848,0.012476711,-0.028047362,0.039020162,0.22683103,0.25568572,0.6323938,-0.28370762,0.27002954,0.12568091,0.5057199,-0.1959096,0.19213514,0.09175774,0.000101088845,0.1607264,0.31081116,-0.0996423,0.47838318,0.22554697,-0.024772068,0.08899034,-0.4114724,-0.29229528,-0.31303647,-0.19152398,-0.22741364,0.15005755,-0.04275844,0.29128286,0.2767049,0.28468347,0.23202077,0.2385105,-0.5221594,0.13302909,0.13687938,0.08846983,-0.06488366,0.37144145,0.51409584,0.24041149,0.14540963,0.104432516,0.38636667,0.68443817,-0.0039021971,0.22414473,0.16542149,-0.16252327,0.15294796,-0.3185784,0.14249875,-0.34114143,-0.086140685
PengendalianKimia,0.37477514,0.07742915,-0.13242422,0.26038146,0.36836314,0.13797417,-0.12612143,-0.4164081,-0.27150968,-0.6013855,-0.095200144,0.13901559,0.028747564,0.2548873,1.1466657,1.2248244,0.4378764,-0.36587837,0.15238614,0.5598618,0.72656566,-0.30356488,-0.18120348,0.079693444,-0.52336454,0.947516,0.34497684,0.1479459,0.54656774,0.25577438,-0.5456117,-0.49081317,-0.10007401,0.01410344,-1.0049667,-0.16461806,0.31624028,-0.33696887,-0.45845535,0.37239146,-0.17567776,-0.57857203,0.032442175,0.17508255,0.11145406,-0.24948929,-0.015403563,-0.5146407,0.034076117,-0.10987607,-0.3532305,-1.1340051,1.1779137,0.18917473,0.512059,-0.34605178,-0.029628739,-0.6410957,0.2438344,0.014113607,0.054528244,-0.32662576,-0.36353022,-0.23023948
Pengendalian,0.47202787,-0.0020330811,0.032321464,0.33897346,0.44049796,0.2928618,-0.14977257,-0.19422762,-0.29924834,-0.43440524,0.018959217,0.13802099,0.105320945,-0.03409267,0.9664046,1.3109094,0.36498752,-0.4244306,0.06284469,0.39446527,0.7623579,-0.49777934,-0.3782867,0.07681111,-0.52953875,0.9147987,0.27775314,0.13359249,0.53249216,0.22173838,-0.7841414,-0.60480285,-0.041314326,0.14540157,-0.88075846,-0.2875627,0.3656618,-0.17923926,-0.4529514,0.4067199,-0.053580236,-0.3265595,-0.08374832,0.28558993,0.22829208,-0.38018388,0.026616246,-0.47105643,-0.05086216,-0.2215253,-0.56003654,-1.1250862,0.9739927,0.013756028,0.480977,-0.44475666,0.11941764,-0.52503395,0.37751257,-0.106608674,0.018864764,-0.35250607,-0.38860968,-0.2707584
tungau,0.30570215,-0.039528392,0.14880781,-0.18076399,0.07721905,-0.40304857,0.08625191,0.105536185,-0.35459098,0.014374218,-0.09985457,-0.094455406,-0.39581499,0.041245993,0.25637856,0.41044027,-0.23688261,-0.26951158,-0.113621265,0.6571534,-0.051870897,0.07291952,0.51872873,0.075565286,0.13715087,0.26644722,-0.39293197,0.41605824,0.5280491,-0.015750274,0.23411615,0.06655854,-0.2426524,-0.5007443,0.20828845,-0.3165737,0.10337414,0.058048073,-0.07307676,-0.09040199,0.39134777,-0.05510106,0.076690786,-0.6936342,-0.12887584,-0.18892276,-0.31086248,0.007903231,0.5588564,0.51770824,0.55739564,-0.16483948,-0.03141483,0.37434617,0.5342937,-0.15310377,0.4462397,0.34144187,-0.29063332,0.10835985,0.03489325,-0.11015813,-0.0031990807,-0.074805945
metalaxyl,0.4961752,-0.0735735,0.026367156,0.38851926,0.4296808,-0.16557287,0.088292725,0.47740653,-0.44330934,-0.10113827,0.021384908,-0.06056146,-0.36644608,0.38730904,0.015532407,0.24220832,-0.32437706,-0.23598869,0.20303474,0.005833108,0.51947576,0.65199643,0.07154136,-0.071467794,-0.25781113,0.4164521,-0.30788913,-0.11147571,0.07627349,-0.34351885,-0.00615552,-0.08212239,-0.25325045,0.27139086,0.17664725,-0.36828783,0.13609919,0.22767785,0.060964454,-0.070495084,-0.1348601,0.054937012,0.18594687,-0.23236287,0.08544366,-0.11618194,-0.20758371,-0.23284674,0.50935763,0.5583504,-0.40679812,-0.110519804,-0.008324199,0.2465822,0.88077545,0.4323782,0.096936196,-0.03724801,-0.47054446,0.1980552,0.17273872,0.037280142,-0.09846155,0.067766614
na61ff444636d4a939718f3d4b2f8028ab7,-0.00025285836,0.11123764,0.41647798,-0.10517303,0.46840438,-0.07819987,-0.19425765,-0.8116356,0.17030583,-0.917342,0.6125287,-0.64769095,-0.35837358,-0.36865556,0.34613565,0.55280334,-0.11905245,-0.38917017,0.24978864,0.112025514,0.22363439,0.21884152,-0.47388566,0.18600363,-0.24726364,-0.111671194,-0.35544974,0.25837114,0.21820566,0.4967143,-0.48112568,0.20415612,0.017918143,0.060383942,-0.5374275,-0.35426545,0.19897291,0.023487676,0.069889694,-0.0578352,0.3026497,-0.070411615,-0.30415624,0.05029698,0.15502292,0.21033274,0.1722594,-0.59208673,0.067208305,-0.19097838,0.025477558,-0.7903931,-7.658438e-05,0.0061557493,0.015542607,-0.4003313,0.18711768,0.04138163,0.006442064,0.56685376,0.17298797,0.014921582,0.18314537,-0.084309
bercak,0.25983483,-0.24841447,0.48043153,0.059823427,0.4193533,-0.43440506,0.26288584,0.35301194,-0.30522767,0.091394134,0.2133798,0.19474517,-0.57642716,0.10164388,-0.3507897,0.38296437,0.35070777,-0.06514862,-0.25257593,0.23287584,-0.18244117,0.15369798,0.161984,0.10010923,0.05861163,0.39627463,-0.13064617,0.14624877,0.1624032,-0.2187558,-0.13100275,0.034460764,-0.16720001,-0.31837645,-0.12316026,-0.5439727,0.6082714,-0.13443899,0.1499642,-0.007353819,0.3363392,-0.031016009,0.12550116,-0.50191754,-0.13238943,0.27607894,-0.26436463,-0.06864067,0.21314396,0.17769888,0.26655743,-0.08058688,0.08970044,0.16687039,0.34745866,-0.050868493,0.2446328,-0.05470455,-0.35332912,-0.08269454,0.029720085,0.27494007,-0.19757034,-0.49368435
Shoot_Flies,0.25537547,-0.07459557,0.5797053,0.1869305,0.026497602,-0.27140054,-0.11308836,-0.1253473,-0.0004219266,0.026448768,0.10493446,-0.25795224,-0.044694964,0.024326593,0.07862694,0.35158634,-0.20112911,-0.12324334,-0.17720316,0.26070133,-0.011766545,0.44937074,0.48255628,0.002805429,0.1096673,0.21857537,-0.011873409,-0.17955257,-0.16911453,-0.39017498,-0.13765332,-0.03728247,0.05158269,0.20785852,-0.5370763,-0.6300823,0.46881205,0.46375266,0.27510038,0.21351264,0.056169454,0.18133876,0.008314305,-0.6457849,0.17535432,0.07296624,-0.46936297,0.09261208,0.013296088,0.32147667,0.23772602,0.062522195,-0.17834347,0.38665137,0.477284,0.17965063,0.3893184,-0.0066143693,-0.29858816,-0.09576457,0.1324017,0.12584956,0.0650818,0.1594019
varietas_tahan,0.40711126,-0.27213135,0.22642405,0.17550787,0.27218103,-0.39275807,-0.061782643,0.06590085,-0.34700274,-0.028609818,0.14441817,-0.040048324,-0.22336954,0.21040362,0.1214945,0.26760134,-0.029807433,-0.16593604,-0.3204015,0.2936902,0.33127356,0.4292018,0.21777044,-0.19673993,0.056306776,0.416513,0.010116552,-0.0075514754,0.014301596,-0.16762799,0.041308936,0.10396307,-0.26958263,-0.15768349,0.022623386,-0.3826077,0.29724023,0.10306529,0.011891949,0.14103244,0.19812973,-0.12812042,0.20825318,-0.5799239,0.18942235,-0.008595491,-0.31532943,0.17988698,0.096893504,0.22733194,-0.0629703,-0.14050215,0.05328834,0.10261863,0.4414128,0.35445157,0.32119647,0.013092607,-0.29382434,0.09944225,-0.26277748,0.005017611,-0.16387868,-0.076455735
bahan_organik_rendah,0.36318642,-0.31874982,0.2205807,0.42455193,-0.15424934,-0.72143716,-0.046558104,-0.12615123,-0.1765886,0.42854968,0.07038219,-0.09694938,-0.33497044,0.16893077,0.087167054,0.86203355,-0.20190701,0.32801488,0.11614057,0.4296288,0.49462214,0.17439592,-0.11899785,-0.24004011,0.0144748185,0.050981447,-0.43293348,-0.35334444,0.0014444396,-0.41699797,0.2955062,-0.14000109,0.16460714,0.4920607,-0.25152257,-0.18455222,0.53898287,0.56297326,-0.16892183,-0.26423672,0.07713162,0.18746358,0.07476022,-0.5296308,-0.072643556,-0.2601466,0.08970996,-0.031241836,0.2773293,0.15115121,0.42796853,0.013254953,0.06812859,-0.0930963,0.39419958,-0.32866395,0.35115275,-0.32301006,-0.108029254,-0.058852196,-0.0017953627,-0.26499936,-0.0077142213,-0.18491083
na61ff444636d4a939718f3d4b2f8028ab25,0.14451529,0.17468575,0.09744035,0.12488616,0.5497755,0.3107201,-0.4278444,-0.25265786,-0.3602043,-0.43879247,0.4825033,-1.0227258,-0.27852687,-0.40139124,0.17411698,0.57173395,-0.08653643,0.09837912,0.38170302,-0.0055855047,0.62302154,-0.48062554,-0.10212672,0.048883278,0.29177052,-0.053818926,-0.4500156,-0.599348,0.46065363,0.838456,-0.35803756,-0.02901487,0.0745186,-0.20125814,-0.57171714,-0.6125295,0.5583676,0.03371694,0.01795466,0.46662053,-0.31888264,-0.5323234,-0.2671687,-0.32736036,0.055015143,-0.621826,-0.35734215,-0.73679745,-0.010070269,-0.0022278754,-0.03510092,-0.24956433,0.40337902,-0.029581767,-0.39652693,-0.29318327,-0.37121716,-0.052611265,-0.20541587,0.43392432,-0.42125174,0.07259637,0.17420115,-0.43386483
na61ff444636d4a939718f3d4b2f8028ab26,0.0786731,0.24145275,-0.01137725,0.2107223,0.6202411,0.46575963,-0.4527328,-0.220757,-0.42930603,-0.46693173,0.40404502,-0.97642434,-0.28889853,-0.47820857,0.29151005,0.6088999,-0.07956521,0.084028095,0.29438338,-0.12898643,0.29865447,-0.37089583,-0.10410017,0.36085492,0.18958573,0.16990976,-0.3995964,-0.23353708,0.44180265,0.6160037,-0.15017797,0.009808501,0.25219572,-0.16275409,-0.4218761,-0.5144039,0.46280813,-0.016603263,-0.1252032,0.2729365,-0.018041141,-0.16590224,-0.18522379,-0.4538252,0.30931696,-0.1857902,-0.31947216,-0.6556403,-0.20499688,-0.15786533,-0.021573756,-0.49589792,0.38333213,-0.29113927,-0.28754264,-0.36009368,-0.16485673,-0.21602161,0.04797993,0.33039245,-0.14998618,0.26856732,0.10777224,-0.17197861
Lesser_Stalk_Borer_of_Maize,0.24895772,-0.35473222,0.5277636,0.14604753,-0.22752565,-0.033128604,0.31825513,-0.20972499,-0.44638765,-0.24833491,0.2152811,0.038313113,-0.080344625,0.14333491,-0.12117591,0.71795577,-0.19019328,0.10423306,-0.2243782,0.21555892,0.4705992,0.3352396,0.6046617,-0.105645806,-0.04352238,0.4719919,-0.21228608,0.22016263,0.03834733,0.16852589,0.013887236,0.0014922854,-0.32587862,0.14717938,-0.28804776,-0.9224222,0.16084951,-0.095128804,0.14883725,-0.10329826,0.040707305,0.22772548,-0.07532055,-0.0648913,0.08701468,-0.12400923,-0.053855848,0.36614093,0.1906434,0.10919985,0.1752803,0.09712121,0.15591326,0.15582515,0.24688986,0.41193125,0.22312702,-0.016870946,-0.2577175,-0.28078905,0.030991208,0.07242471,0.051561624,-0.03209257
na61ff444636d4a939718f3d4b2f8028ab15,-0.1096879,0.47014263,-0.059817642,-0.11977574,0.31548485,0.14855309,-0.26749948,-0.30435565,-0.2302474,-0.6477385,0.43418628,-0.5149721,-0.2744292,-0.06181339,0.12681906,0.79064095,0.11802086,-0.5561909,0.5320113,-0.1097746,0.7137553,0.06465289,-0.13365322,-0.11281904,-0.32298177,-0.06932333,-0.5775956,0.37208158,-0.11745052,0.6898885,-0.5807808,0.020625781,0.41474542,0.040749416,-0.19857965,-0.29268354,0.30481768,-0.10402531,-0.2374596,0.054178424,0.14595507,-0.12472612,0.035049334,-0.2055166,0.47742936,-0.3705986,0.053051632,-0.23862873,-0.22524491,-0.109391786,0.2337982,-0.36773673,0.040621135,-0.13011499,0.30987728,-0.29732475,0.15042965,-0.15522745,0.4966894,0.82087237,0.07554466,0.21194747,-0.13440113,-0.022177868
MLND,0.3312197,-0.09081108,0.169762,0.22619638,0.50690186,-0.5218984,-0.18645737,-0.10339176,-0.44317976,-0.14808674,0.16204102,0.47396955,-0.22817127,-0.43780643,0.19170304,0.3876625,-0.52324426,-0.17057641,0.12690955,0.41247848,0.47378546,0.3049554,0.37240034,-0.26875877,0.017302452,0.05524644,0.007621539,0.263736,0.052870397,-0.46809015,0.28524762,-0.14646362,-0.40158787,-0.3210644,-0.052497752,-0.2937491,0.44729662,-0.053701755,-0.18201669,0.3742815,0.0020571512,0.23940618,-0.089340895,-0.63730085,-0.30108353,-0.27975735,-0.7895606,0.17585674,0.21944973,0.103488036,0.12551846,-0.073677756,-0.19749792,0.023753561,0.52908134,0.27989605,-0.02989151,-0.016998542,0.222669,-0.28902757,-0.32382295,0.12444417,-0.099739976,0.069988295
deformasi,0.55853283,0.100413784,0.116886884,-0.13602147,0.22194715,-0.3060668,-0.0009355409,0.13816814,-0.37016696,0.103021644,-0.14984913,-0.10909843,-0.3989999,-0.12888439,0.42145592,0.59068245,-0.40600625,-0.054412317,-0.3806858,0.2926935,0.14968604,0.34205145,-0.010503978,-0.4644991,0.19538747,0.2660162,-0.17563939,0.25505164,0.03539855,-0.25198567,0.08158555,-0.024122274,-0.4629417,-0.17373796,-0.12384705,-0.5485142,0.33009523,0.009387138,-0.036104947,0.17624523,-0.06831625,0.17627019,0.5211087,-0.2600396,-0.13978441,-0.07413716,-0.23892386,-0.04964118,0.3276584,0.2828402,0.13619234,0.02952299,0.051666092,0.11618459,0.5101754,0.033495907,0.15665823,0.11209027,-0.23718517,-0.026221432,-0.21706668,0.05694772,-0.38998672,0.15470295
bunga,0.49938834,-0.16264628,0.21721928,0.029160354,0.061144307,-0.3053521,0.03052645,0.05329999,-0.23726377,0.058268208,0.5996148,-0.079984196,-0.2944141,-0.23459299,-0.0015727121,0.4537253,0.19034211,0.18906365,0.011491391,0.7316507,-0.05862869,0.36996788,0.5899595,-0.17058493,-0.4419122,0.63372606,0.07785819,-0.21066986,-0.05425475,-0.18614952,0.056379713,0.23571432,0.07604091,0.22865243,-0.010355956,-0.4841176,0.29298827,0.058068927,-0.07787266,0.18721415,0.032080125,0.48122326,-0.10283445,-0.27239797,0.43424535,-0.03873269,-0.036583617,-0.025370875,0.15901831,-0.115856566,0.06880093,0.04390049,-0.016279938,0.16159195,0.14063962,0.5344201,0.2357732,0.2598195,-0.1257075,0.15980859,0.12282913,-0.10244662,-0.36277503,-0.33975276
pezizomycotina,0.5547526,-0.461442,0.26723066,-0.07934224,0.3613499,-0.15152381,-0.35739613,0.32346135,-0.2573879,-0.09970344,0.7758963,-0.06357777,0.112609446,0.14655069,0.2412901,0.50280285,-0.033057217,0.51802915,0.20680584,0.3324836,-0.26719388,0.24968481,0.00948462,-0.2373527,0.23989409,0.42044684,-0.08164521,0.23199062,0.16886862,-0.47039175,0.25397864,-0.46286148,0.051829252,-0.070931435,-0.028199123,-0.43010268,0.024234481,-0.12645793,0.40540114,-0.11765234,0.05997607,-0.023200186,-0.07659,-0.123788886,0.14575262,-0.31479296,0.2163684,-0.019126903,0.13251923,0.61257315,0.17838074,0.014422516,0.11060133,0.6783614,0.7176282,-0.12749834,0.37924805,-0.0046994337,0.19983867,0.29815444,-0.5424225,0.31545645,-0.16398202,-0.064204186
euschistus_servus,0.4353878,-0.19518776,0.66234386,-0.03899634,0.03109532,-0.15087835,0.310448,0.18817344,-0.592028,0.15677191,-0.0500361,0.40693077,-0.4828495,0.13238767,-0.23400861,0.3348021,0.15898098,-0.10297674,0.40870026,0.16079012,0.5461584,0.020092554,0.7508639,-0.06868939,0.5579768,0.67958903,-0.15306932,-0.092459284,-0.04642943,-0.46891814,-0.49027333,0.018171506,0.2473924,0.22466177,-0.217629,-0.43684795,0.5748738,-0.53221244,0.3383312,0.038510803,0.09441071,0.092622,-0.21152101,-0.4663193,-0.024934314,0.17645487,-0.25652587,0.018355405,-0.031238975,0.32676202,0.16219266,-0.058561,0.3221445,-0.08813704,0.24818322,-0.08164198,0.21133758,0.18997635,-0.09483962,0.10491234,-0.05922833,0.13933888,-0.47115803,0.19048104
akar,0.00210735,-0.14453128,0.20408933,0.29484525,-0.26845813,-0.5028186,-0.1579211,-0.14567284,-0.37777436,-0.021814289,0.07236711,-0.20681481,-0.6759221,0.24467662,0.0023328413,0.60732824,0.0634162,0.24590547,0.060395572,0.5165666,0.46592408,0.36567062,0.09097014,-0.104564615,-0.39779577,0.3878769,0.06545984,-0.20504254,0.0541853,-0.4678,0.27462953,0.06408812,0.27338475,-0.012093036,0.14192556,-0.3173087,0.14426158,0.3487087,0.21580887,-0.05817312,-0.2797284,0.07934297,-0.03899481,-0.42582363,0.090152085,-0.054387875,-0.107814245,0.010066438,0.11868344,0.39796284,0.0248483,-0.007563234,0.56976455,0.1623255,0.3210973,0.2203284,0.32398993,-0.09112053,-0.44261467,-0.054104324,-0.15407528,-0.17312792,-0.09217382,0.17771156
tanah_berpasir,0.27431047,-0.35279328,0.3346268,0.30434236,0.09994535,-0.31996188,-0.23797847,-0.37897688,-0.0025994177,0.21001637,0.11768398,-0.21065432,-0.32597986,0.08817906,-0.060325623,0.63763773,-0.09184684,0.23058414,-0.1642805,0.4113656,0.30694085,0.2872472,0.17226598,-0.42050257,0.29156497,0.2788182,-0.23164459,-0.044814873,0.109762065,-0.1919026,0.45304292,-0.11438605,0.038953908,0.45750043,-0.0020609843,-0.31334278,0.4801767,0.41188505,0.052760858,-0.047324747,-0.21155201,0.29599246,0.45588806,-0.10279623,-0.24714962,-0.4139939,-0.21956864,-0.06796771,0.40781045,0.18924768,0.44171923,0.04565284,-0.10457296,-0.0153087545,0.50095326,-0.3968731,0.19865125,-0.43398967,-0.19578655,-0.053947628,-0.027166361,-0.08778767,-0.12722471,-0.14965421
namaIlmiah,-0.10265373,0.488305,0.49435046,-0.004233645,0.42516673,-0.19751586,-0.49418354,0.1261888,-0.36186972,-0.5173556,0.4139541,-0.5819401,-0.65942353,-0.31043005,-0.22064759,0.3078672,0.16398673,-0.31248787,0.2260841,0.35146633,-0.14277413,-0.21898025,0.030413426,0.00981059,0.27799308,0.20073475,-0.28725952,0.19286932,-0.008793138,0.6114654,-0.24647522,-0.5649417,0.14090012,0.35385147,-0.82325155,0.1610098,0.13256882,0.5988433,-0.28003216,-0.026329188,-0.25171873,0.15111938,0.04533127,-0.09364607,-0.0813988,0.069075815,-0.53862566,-0.79508156,-0.5045598,-0.49324042,0.4747425,-0.92840207,1.044155,0.32533705,0.5260021,0.16746344,-0.24945733,-0.25305378,0.24267702,1.0124474,-0.40232357,0.26051927,0.14045875,-0.19271171
string,-0.16308606,0.33054298,0.39995039,-0.042231802,0.20918125,0.011497901,-0.4752959,0.08397771,-0.50191706,-0.3135422,0.360779,-0.42249918,-0.6625685,-0.3547405,-0.1565623,0.52691555,-0.00365322,-0.46828,-0.07651301,0.2390399,-0.24044517,-0.070594944,0.18689422,-0.3300462,0.10322197,0.036251593,-0.45234647,0.2766085,0.09581441,0.58202845,-0.036785137,-0.61426294,0.16123927,0.27608508,-0.8369744,-0.11595747,0.13608228,0.50840527,-0.075606376,0.09678944,-0.27258408,0.12395428,0.11858163,0.024714408,-0.22793946,0.12694559,-0.6512492,-1.0189835,-0.83667696,-0.415384,0.23239258,-0.84503555,1.1255528,0.06970518,0.59969735,0.1611643,-0.12806034,-0.2483265,0.31799933,0.98120326,-0.45553923,0.2122076,0.5706956,-0.13338679
imidacloprid,-0.1757035,0.12963574,0.56589967,0.2707203,-0.06408924,-0.107486784,-0.034858063,0.08611438,-0.3184546,0.08031828,0.5484123,0.52303374,-0.33923972,-0.30020905,-0.51465154,0.45817047,0.108845174,0.21814679,-0.10206263,0.41833574,-0.25634465,0.51841813,0.039310265,-0.06252298,-0.22873186,0.3111406,-0.5726523,0.061077617,0.25091007,-0.31729808,-0.16011234,0.35293153,0.07656165,0.096668445,-0.2963373,-0.66432464,0.3380973,0.24166092,0.09816725,0.22696626,-0.12742434,0.26406744,0.109431535,-0.4279905,0.21008283,-0.109056495,-0.16724616,0.04185052,0.1621205,0.45224252,0.09259907,-0.06282758,0.14399172,0.4131555,0.20879099,0.3965872,-0.105162315,-0.21343555,-0.3134848,0.21135463,-0.13889089,-0.29733118,-0.35402277,-0.03713694
bacillus_thuringiensis,0.42293093,-0.17303239,0.514491,0.1347367,0.1394196,-0.22483377,0.021151531,-0.22738722,-0.3296402,0.011571263,0.30547655,-0.28913996,-0.0361705,0.25835162,-0.028454768,0.22561961,-0.31490123,0.1954492,-0.33084488,0.32059285,0.3038792,0.40880138,0.5217401,-0.17497802,-0.0123503255,0.50907135,-0.18314071,-0.2765934,0.04407506,-0.08390932,-0.018738154,0.07290142,-0.030153302,0.0824147,0.15159029,-0.6913795,0.029777551,-0.26954684,0.042048894,-0.12793347,0.21592595,0.04124762,0.032939203,-0.4350819,0.101580806,0.024323422,-0.12758233,0.27323973,0.20955041,-0.01190519,0.22835532,-0.14129311,0.40878788,0.41783613,0.19493364,0.532491,0.143036,-0.025995106,0.18080913,0.005285875,-0.24715258,-0.17317443,-0.079724595,-0.326058
Leaf_Spot_of_Maize,0.36411098,-0.49553293,0.27527308,0.22755,0.55258954,-0.3032218,0.32917628,0.42575622,0.20004305,0.03412223,0.35645682,-0.05807565,-0.53066957,0.16589767,0.30773056,0.28219226,0.3440755,0.09755438,-0.22376655,0.03988356,0.375214,0.4551211,0.2549838,-0.37762374,0.07613879,0.093215086,-0.10139037,0.5325259,0.1098895,-0.3430978,-0.13945249,0.3613895,-0.13430217,0.1864669,-0.042804237,-0.4387774,0.3977379,0.085995026,0.24264811,0.14613773,0.020079644,0.2381248,-0.06900138,-0.48140505,0.0024090586,-0.16819642,-0.27014837,-0.03277267,0.21281858,0.31513724,0.16814321,-0.18408515,0.32274,0.45019805,0.22793365,0.069298886,0.31911907,-0.066783056,-0.11298762,-0.16456178,-0.066020936,0.075880826,-0.03371087,-0.11402232
cochliobolus_lunatus,0.25973916,-0.42640463,0.01855823,0.0060473415,0.53511584,-0.2729715,0.7150193,0.43209648,0.3022581,0.0015937851,0.21885596,-0.31007448,-0.4637783,0.09721023,0.18240537,0.3681097,0.67099845,-0.037371267,-0.13047163,0.24790926,0.33072174,0.33316022,0.099807926,-0.27422792,0.17309384,0.16963463,-0.05080822,0.72414994,-0.097610585,-0.51303244,-0.008591429,-0.002499099,-0.19189265,0.26895607,0.06772002,-0.42240378,0.40625054,-0.060605396,0.25326854,0.30784374,-0.19818696,0.08911372,0.17044677,-0.6811596,0.18995932,0.0410002,-0.42707503,0.35083658,0.23147015,0.36826363,0.08856731,-0.33289427,0.24273576,0.11756159,0.46346298,0.34135598,0.2845459,-0.40307295,-0.051973674,0.1353196,-0.07323446,-0.03399614,-0.07405735,-0.32279295
pupuk_kandang,0.30543113,-0.44394216,0.13542409,0.3925448,0.1309503,-0.1532453,-0.109338164,-0.3829157,-0.0875005,0.1385138,-0.006255108,0.048762135,-0.29715788,-0.029920656,0.0612648,0.6741349,-0.15099399,0.065468796,-0.037546683,0.17766523,0.26278242,0.2625065,0.2560499,-0.38530114,0.3774559,0.3532998,-0.17746136,0.09441305,0.13236773,-0.37960687,0.30624261,-0.035628397,0.20905063,0.49525177,-0.122129075,-0.3854297,0.44915608,0.5301874,-0.1198818,-0.08605802,-0.045855824,0.3198391,0.56419003,-0.106059894,-0.2993152,-0.33372304,-0.028278556,-0.015653413,0.48361516,-0.0015047871,0.37260482,-0.124491245,0.0054311804,0.0659249,0.4175025,-0.21557318,0.3360632,-0.36146098,-0.27943906,-0.03142853,-0.060540713,-0.037669796,-0.10118464,-0.20610458
Boron Deficiency,0.38426653,-0.2934242,0.14727704,0.38396135,0.016435923,-0.724264,-0.037813254,-0.12317298,-0.13489093,0.4542585,0.081742674,-0.019399343,-0.33558682,0.179095,0.07941925,0.9053142,-0.24103038,0.34427917,0.040385123,0.48700982,0.5330251,0.14611982,-0.11250139,-0.32239494,-0.025646057,-0.07242681,-0.44502512,-0.2691083,0.19809668,-0.40920523,0.24840395,-0.11410509,0.27780902,0.46345687,-0.22417758,-0.22451898,0.44537836,0.58881694,-0.17754075,-0.28913486,0.07322156,0.36598045,0.0733539,-0.30684,-0.14730847,-0.18190227,0.073313385,-0.013710151,0.18726462,0.2344266,0.28480697,-0.059740383,0.0882284,-0.0911146,0.38809708,-0.25360352,0.3452573,-0.46479553,-0.15180956,-0.04927458,-0.057029672,-0.23813523,0.116336904,-0.19719274
zinc_sulfate,0.29801133,-0.20861736,-0.08636476,-0.13794884,0.10281187,-0.23845515,-0.25047195,-0.2987542,0.01958288,0.63914746,0.029575357,-0.35244772,-0.5483872,-0.113926075,0.08828449,0.77936924,-0.4493696,0.09917367,-0.27571106,0.30218825,0.24365464,0.13703859,0.24395671,-0.42712873,0.27369705,0.6302362,-0.05907494,0.18313128,-0.10354503,-0.124920286,0.41473022,0.12973952,-0.20113003,0.438781,-0.060570613,-0.6135813,0.53035116,0.16673495,0.16251689,-0.11063309,-0.19364871,0.13740714,0.62510425,-0.00926265,-0.25995243,-0.29026008,-0.33117393,-0.072901346,0.50329036,0.2574231,0.17613952,0.2035157,0.034565363,0.113645576,0.34578332,-0.18590355,0.14617653,-0.6098172,-0.17475788,0.03157853,-0.24912207,0.12476879,-0.32167298,-0.15413629
Spodoptera litura,0.28343678,-0.17547661,0.05046584,-7.398303e-05,-0.06908708,-0.3571331,-0.3272407,-0.091429025,-0.15276894,-0.115201235,0.37776464,-0.09165018,-0.40189445,0.14429183,-0.1466749,0.56929374,0.05157835,0.30089667,-0.2086578,0.46079525,0.33387926,0.22001794,0.5696619,-0.12214582,-0.24229768,0.5747261,0.14031501,-0.48344067,-0.14979601,-0.27339745,0.061573133,0.015065652,-0.023522692,0.25966296,0.16000144,-0.72990334,0.051135864,-0.32735324,0.07570619,0.45469886,0.49514207,0.058047235,0.14415653,-0.5040828,-0.09902285,-0.13239503,-0.11321203,0.17301352,0.28858566,0.25691235,-0.14525603,-0.10830345,0.8643437,0.18963383,0.06102839,0.62326884,0.2684331,0.30752966,-0.018941954,0.03644793,-0.28022587,0.17573622,0.06962827,0.033554684
na61ff444636d4a939718f3d4b2f8028ab22,-0.24620298,0.121569894,0.38914382,-0.4645722,0.46597016,0.26939,-0.42471123,-0.04465341,-0.21946044,-0.38897753,0.20744582,-0.45202705,0.03598536,-0.14347245,0.4332722,0.21571922,-0.04961855,-0.2561936,0.8584354,0.040270995,0.35987455,-0.1249585,-0.13670826,0.012795063,-0.047942687,-0.058394488,-0.054749172,-0.003044812,0.14700535,0.47865567,-0.09480506,-0.14478548,0.21933377,0.3733463,-0.5007187,-0.6347746,0.39868364,0.044921618,0.12076312,0.12334974,0.29047975,-0.29502347,-0.17824003,-0.4484423,0.4428925,-0.3102967,-0.38218883,-0.33385217,0.3503002,-0.6315006,-0.097341835,-0.9245833,0.44098437,-0.14981613,0.3267448,-0.3383872,-0.32298315,-0.3465675,0.063364476,0.6839516,0.17392719,-0.23130353,0.3813101,0.023803513
thrips,0.19745128,-0.11449131,0.12124894,0.12789492,0.13879326,-0.55890954,-0.07416245,0.06246404,-0.37114152,-0.14632116,0.038806144,0.18464138,-0.30215025,-0.34024563,0.24519955,0.4433599,-0.3854074,-0.20468247,0.084483154,0.69346446,0.14356987,0.22146352,0.34595242,-0.1077561,0.07804198,0.28454965,-0.19401121,0.2706039,0.38191453,-0.26813918,0.19170485,-0.07018326,-0.29576412,-0.44799373,0.03701375,-0.18062037,0.21560875,-0.07675577,-0.10663096,-0.05656826,0.31608677,0.15367998,0.023456149,-0.7055378,-0.3004689,-0.17157154,-0.5942672,0.030515369,0.452179,0.4221772,0.1790531,-0.23916823,-0.12589018,0.22565871,0.50708884,0.13941061,0.23337449,0.21795858,0.07884975,-0.16611187,-0.040837042,0.080654725,-0.039055143,0.0332844
na61ff444636d4a939718f3d4b2f8028ab18,0.0036681178,0.20180093,-0.051199306,0.2488185,0.17345536,0.039078288,-0.28377077,-0.18257467,-0.18521497,-0.6297545,0.42999113,-0.255305,0.0004157205,-0.36292857,0.37606856,0.5942434,0.12073683,-0.6364294,0.22275238,0.17023273,0.5514221,-0.49908885,-0.070156746,0.0314948,-0.1353726,0.4489291,0.08408841,0.41688535,0.061648395,0.34213963,-0.3741165,-0.1056705,0.045060687,0.1282228,-0.6910271,-0.45315552,0.13823873,-0.016992612,-0.2711236,0.38260904,-0.020811658,-0.257405,-0.41401172,0.091980256,0.20816639,-0.51813257,0.020953223,-0.7234803,-0.00282196,-0.07793134,-0.15047011,-0.92685616,0.5123969,0.03020535,0.103577726,-0.34957656,-0.25571197,-0.6308725,0.36638972,0.23437437,0.21043806,0.1010425,0.10444531,-0.12933393
defisiensi,0.31070295,-0.36851394,0.12746213,0.4308896,0.14151347,-0.20019434,-0.11311363,-0.37906894,-0.05036532,0.12515377,0.051850304,-0.05404933,-0.3927074,0.022965217,0.010315246,0.6205126,-0.08748015,0.08669648,-0.044963352,0.28105032,0.19755471,0.20568196,0.24036066,-0.32859302,0.29638067,0.41950166,-0.21101516,0.06598748,0.07009658,-0.2636363,0.3614475,-0.056164596,0.32187855,0.50752294,-0.09178959,-0.35279295,0.4075774,0.49761838,-0.07542866,-0.102530725,-0.066873044,0.24607489,0.66304356,-0.19013527,-0.33277604,-0.3313893,-0.022209516,-0.06771287,0.45148876,0.096616626,0.47973743,-0.11326659,-0.006687237,0.1346775,0.3767213,-0.19736916,0.37777275,-0.30770394,-0.30572906,-0.16673958,-0.09444558,-0.0041532214,-0.0336299,-0.20014645
Peronosclerospora sorghi,0.56552184,0.2591108,0.04856961,0.27855068,0.5537151,-0.2011724,0.18303742,0.7346468,-0.42776695,-0.07213145,-0.1519364,-0.07619723,-0.10530112,0.12495455,0.107607566,0.32826644,-0.26398224,-0.22550033,0.055963688,0.12662055,0.31895232,0.42880595,0.07738787,-0.23242721,-0.0050109383,0.26941112,-0.4867684,-0.18384075,0.008316126,-0.35568836,0.14670219,-0.2538984,-0.45317903,0.37499258,0.2745285,-0.7229679,-0.16565903,0.12711512,-0.057790328,-0.031321093,-0.26535317,0.46847084,0.06684548,-0.32658628,0.23893824,-0.03535172,-0.32005706,-0.37404972,0.40744185,0.1286413,-0.13935615,-0.3131942,-0.0094539905,0.4544388,0.64821297,0.21131651,0.38269326,-0.055751987,-0.50621665,0.014379508,-0.2269765,0.35170904,-0.039559625,0.07747011
chlorothalonil,0.09240779,-0.61631876,0.17239916,-0.1367525,0.5560342,-0.25713298,0.7200699,0.4478437,0.073880896,-0.019687062,0.5941603,-0.19526958,-0.56373596,0.072043195,0.114498846,0.26329127,0.55095845,-0.20544106,-0.122490816,0.18794279,0.1751334,0.4269683,0.069009826,-0.3092183,0.17286597,0.37849373,-0.25243068,0.25501955,-0.22927193,-0.58919406,-0.07006495,-0.094411485,-0.051999256,-0.12024981,-0.15822549,-0.34990835,0.3313549,0.124572754,0.15751365,0.11350454,-0.056596875,-0.038865674,-0.13203247,-0.54052764,0.12952036,0.18479973,-0.4111933,0.09564309,0.5033983,-0.03652749,0.20067303,0.11505802,0.50983673,0.04035306,0.5408464,0.15723711,0.055431046,-0.20708373,-0.120508455,-0.26262918,0.020404859,0.17274989,0.09519998,-0.35159156
Termitidae,-0.16878025,-0.055901136,0.36938617,0.38161704,-0.38036177,-0.07075829,0.12267172,-0.083772674,-0.27680954,-0.1377959,0.4494265,0.3828652,-0.22547078,0.20939583,-0.2844293,0.26941937,0.067700185,0.32626587,0.08256683,0.5955938,0.12775345,0.08511528,-0.14653307,-0.33992392,0.06737185,0.42377847,-0.5779097,0.061657343,0.07781931,-0.37418944,-0.18937168,0.22537643,0.17964397,-0.13926354,-0.27514234,-0.7730795,0.3100796,0.07956432,0.09741596,0.24254356,-0.29488456,0.27147627,0.261693,-0.38745704,0.39093143,-0.2529934,-0.41457146,0.111038074,0.10469334,0.59128827,-0.047925815,-0.14504936,0.4663569,0.56009656,0.40770462,0.3714451,-0.18588784,0.09225546,-0.28102416,0.08471858,-0.20396288,-0.44679195,-0.19166188,0.11066147
na61ff444636d4a939718f3d4b2f8028ab24,-0.17355327,0.10849351,-0.0328455,-0.20873125,0.2599876,0.14815252,-0.031224031,-0.10853214,-0.18774499,-0.5661722,0.28203467,-0.72271556,-0.24488294,-0.5729681,0.32621083,0.24993879,-0.15717287,-0.23268197,0.49603087,0.49557447,0.41116014,0.3145566,0.112698086,-0.05507953,-0.09709865,-0.023777127,-0.6173882,0.34919322,0.016172066,0.106867865,-0.34434357,-0.16455781,0.35827067,0.2532176,-0.1398157,-0.22714181,0.3369299,-0.080521844,0.1367185,0.024785316,0.27681878,-0.37891394,-0.08659632,-0.08077195,0.6791659,-0.26826763,0.15143266,-0.6049494,0.36463404,-0.71303177,-0.18439336,-0.72356206,-0.04044447,-0.15749034,0.116544254,-0.3091276,-0.031567007,-0.33427224,0.19355078,0.79254586,-0.06033971,-0.035760254,0.24721321,-0.00498508
Zinc Deficiency,0.31114239,-0.11659277,0.13722204,-0.05779127,-0.059120756,-0.3060926,-0.13260794,-0.24324931,0.062903315,0.7070685,0.27794418,-0.46416965,-0.5304351,-0.13993451,0.105358705,0.75669265,-0.5057821,0.0118789645,-0.2317779,0.2607415,0.09868662,0.33343744,0.2831239,-0.32976958,0.5193757,0.55468804,-0.24411571,0.23503804,-0.2767829,-0.1382504,0.42926782,0.13064758,-0.2983797,0.2675787,-0.009053996,-0.6629029,0.5412853,0.25083774,0.07758266,-0.16463886,-0.23225008,0.2635953,0.6285317,0.021341542,-0.18338291,-0.2917409,-0.36727312,-0.13512999,0.4178471,0.15090169,0.260448,0.19131215,0.022610063,0.09886513,0.15859768,-0.12837972,0.2490502,-0.5608951,-0.19869009,0.056683145,-0.20316945,0.21511683,-0.19890131,-0.15899816
kompos,0.11200886,-0.43202513,0.21548522,0.2557053,0.5271702,0.08447766,0.0054476247,-0.5261627,-0.110477805,-0.050369404,0.06530206,0.18731888,-0.3182255,0.10851025,0.12413448,0.5935155,-0.10884973,-0.041095085,0.031044865,0.09688127,0.13444896,0.47108683,0.3454746,-0.11788014,0.43032503,0.47980165,-0.16182934,0.13577904,0.17623197,-0.2706973,0.4334711,-0.08720105,0.5597216,0.40950033,-0.16381122,-0.3556026,0.11576527,0.3755583,-0.083879024,0.111633234,-0.011125176,0.34662995,0.6388385,-0.20809878,-0.28413394,-0.566577,0.08339245,-0.010455425,0.28237337,0.04725331,0.31772003,-0.15341766,-0.004894135,0.07409668,0.3713412,0.09037533,0.5952597,-0.10247893,-0.47318608,-0.031120833,-0.070306845,-0.12651491,-0.104605414,-0.44590086
bunga_jantan,0.5376409,0.098500125,0.06952654,0.036899786,0.19919187,-0.3684883,0.1652563,0.42022625,-0.6189568,-0.085050255,-0.12800576,-0.084758624,-0.32441565,0.29018128,0.33631164,0.27581573,-0.42107105,-0.118654445,-0.102628715,0.36852401,-0.084866345,0.35527694,0.39433074,-0.15669753,0.234795,0.15597545,-0.66090244,0.28852636,0.20419115,-0.19835022,0.000213765,-0.13748981,-0.48480126,0.054456595,0.058635905,-0.27255768,0.006715993,0.12783395,-0.02991101,0.1754286,0.22178563,0.21402963,0.30008152,-0.45411515,0.2339748,-0.2087704,-0.23506877,-0.11946522,0.45293397,0.22205283,0.021995714,-0.26039132,0.20060784,0.34381267,0.44113865,-0.023490164,0.3535579,0.1611174,-0.6033179,0.08229401,0.060749624,0.038194664,-0.31616083,0.075691596
na61ff444636d4a939718f3d4b2f8028ab1,0.23223226,0.4278337,0.27674487,-0.2805519,0.48366666,0.48921967,-0.1631493,-0.24134928,-0.6154804,-0.20132099,0.90271145,-0.39404595,-0.22610958,-0.010509435,0.4101112,0.4619154,-0.35676312,-0.11725982,-0.11345819,0.01701854,0.81846434,-0.35163918,0.04886389,0.14496829,-0.6485712,0.20417525,-0.14011689,0.42728585,-0.17952332,0.23996785,-0.19868433,-0.27315053,0.070501156,0.30571032,-0.49960726,-0.10108288,0.3779184,-0.04012165,0.07341006,-0.14368467,0.43015796,0.18847209,-0.15804201,-0.603751,-0.22989339,-0.5118525,-0.05729901,-0.6403029,-0.16199672,-0.44307986,0.0047851764,-0.92090285,0.22413217,-0.05926613,-0.0034648592,-0.39173633,-0.8423844,-0.076013304,-0.2581964,0.4796724,0.05868397,0.8040104,0.18144989,-0.006357513
na61ff444636d4a939718f3d4b2f8028ab2,0.10893692,0.07937137,0.26384515,-0.28407854,0.44224888,0.33986422,-0.3189393,-0.41871443,-0.5057175,-0.42951918,0.4805853,-0.26438326,-0.29399562,-0.10655043,0.2753588,0.2709976,-0.027958404,-0.080913536,0.23063046,0.19214505,0.7392235,-0.25728673,-0.23768438,0.1928787,-0.47631577,0.16429158,0.0257421,0.35856062,-0.017672202,0.47946298,-0.16853954,-0.32047942,0.09477491,0.25488728,-0.47875705,-0.14376962,0.5589595,-0.052899905,0.06672778,0.1046869,0.43112865,0.0053631417,0.14411493,-0.47077623,0.13911256,-0.33389995,-0.03889985,-0.9249933,-0.22582684,-0.26748124,0.05651597,-0.67617553,0.29955932,-0.03269716,-0.13027562,-0.16999201,-0.6520517,-0.29673603,-0.08653151,0.52789927,0.21881348,0.75074655,0.17615879,0.124054156
kerusakan,0.21899302,-0.18439074,0.36384648,0.13528095,-0.08797674,-0.24807727,0.15770173,-0.17624041,-0.3605908,0.036734983,0.3257628,-0.085470006,-0.10599549,0.16142328,-0.05522843,0.26451325,-0.10159705,0.17677605,-0.04930905,0.6464675,0.32614785,0.17339753,0.50737077,-0.31626394,0.047268104,0.52577907,0.12643857,-0.26754928,0.09742406,-0.21850587,-0.19469477,0.2006359,0.22010826,0.1633431,-0.27138275,-0.54949564,0.2473659,-0.18836115,0.1301688,0.1502209,-0.099868014,0.211733,-0.13659985,-0.24400215,0.40313268,0.0625751,-0.1959344,0.026019149,0.29260868,0.20761968,0.0015175566,-0.04583747,0.12551591,0.40562043,0.30594996,0.35701203,0.24409086,0.12744269,-0.087820575,0.017619275,-0.082569346,-0.1266086,-0.11510603,-0.21372207
jamur_beauveria,0.10325149,-0.118350856,0.42854556,0.28615236,0.015314229,-0.44186497,0.3236768,-0.10259589,-0.42445076,-0.19760989,-0.16695428,-0.057872135,-0.5585244,0.15485853,-0.2764997,0.39935097,-0.37633562,0.34824917,-0.098152794,0.6092461,-0.09740588,0.2939463,0.11094106,-0.2931145,0.020656368,0.32878336,-0.04638628,0.34782606,0.12964797,-0.1411154,-0.2835581,-0.02762121,-0.045082223,-0.1757041,-0.34047285,-0.613139,0.03363687,0.23204426,0.35871282,0.31725445,-0.17245863,0.30549318,0.13545741,-0.4045001,0.395907,-0.104535356,0.105817676,0.047179323,0.28058466,0.10551538,0.0005397499,0.026822185,0.3142638,0.26369882,0.35388348,0.33614892,-0.1071629,0.05191951,-0.1569381,-0.19419673,-0.22283116,-0.016188197,-0.268907,-0.085741766
bagrada_bug,0.24820656,-0.07642919,0.5904498,0.1363959,0.30992094,-0.12511973,0.029925734,0.27921897,-0.34342757,0.24409698,0.37702003,0.05634062,-0.13503174,-0.4885744,-0.36351115,0.6819421,0.041022677,0.1631473,0.023523193,0.021659102,-0.46964404,0.6596629,0.4557689,0.1487588,-0.49742788,0.36264482,-0.38922378,0.07315831,0.35920116,-0.4098677,-0.20684762,0.15905125,0.045013774,0.2997248,-0.17892067,-0.49674806,0.37541726,0.105165355,0.02220774,0.30759138,0.15128987,0.38071874,-0.049215637,-0.52541196,-0.05464273,-0.26514545,-0.14211372,-0.117495924,0.23303597,0.23364793,0.27343264,0.032495193,-0.036377557,0.018699562,0.023478238,0.41922244,0.13305806,-0.28247452,-0.20626746,0.19773881,-0.063094795,-0.2227309,-0.46049607,-0.16669849
